{"learner":{"attributes":{},"feature_names":[],"feature_types":[],"gradient_booster":{"model":{"gbtree_model_param":{"num_parallel_tree":"1","num_trees":"240"},"iteration_indptr":[0,1,2,3,4,5,6,7,8,9,10,11,12,13,14,15,16,17,18,19,20,21,22,23,24,25,26,27,28,29,30,31,32,33,34,35,36,37,38,39,40,41,42,43,44,45,46,47,48,49,50,51,52,53,54,55,56,57,58,59,60,61,62,63,64,65,66,67,68,69,70,71,72,73,74,75,76,77,78,79,80,81,82,83,84,85,86,87,88,89,90,91,92,93,94,95,96,97,98,99,100,101,102,103,104,105,106,107,108,109,110,111,112,113,114,115,116,117,118,119,120,121,122,123,124,125,126,127,128,129,130,131,132,133,134,135,136,137,138,139,140,141,142,143,144,145,146,147,148,149,150,151,152,153,154,155,156,157,158,159,160,161,162,163,164,165,166,167,168,169,170,171,172,173,174,175,176,177,178,179,180,181,182,183,184,185,186,187,188,189,190,191,192,193,194,195,196,197,198,199,200,201,202,203,204,205,206,207,208,209,210,211,212,213,214,215,216,217,218,219,220,221,222,223,224,225,226,227,228,229,230,231,232,233,234,235,236,237,238,239,240],"tree_info":[0,0,0,0,0,0,0,0,0,0,0,0,0,0,0,0,0,0,0,0,0,0,0,0,0,0,0,0,0,0,0,0,0,0,0,0,0,0,0,0,0,0,0,0,0,0,0,0,0,0,0,0,0,0,0,0,0,0,0,0,0,0,0,0,0,0,0,0,0,0,0,0,0,0,0,0,0,0,0,0,0,0,0,0,0,0,0,0,0,0,0,0,0,0,0,0,0,0,0,0,0,0,0,0,0,0,0,0,0,0,0,0,0,0,0,0,0,0,0,0,0,0,0,0,0,0,0,0,0,0,0,0,0,0,0,0,0,0,0,0,0,0,0,0,0,0,0,0,0,0,0,0,0,0,0,0,0,0,0,0,0,0,0,0,0,0,0,0,0,0,0,0,0,0,0,0,0,0,0,0,0,0,0,0,0,0,0,0,0,0,0,0,0,0,0,0,0,0,0,0,0,0,0,0,0,0,0,0,0,0,0,0,0,0,0,0,0,0,0,0,0,0,0,0,0,0,0,0,0,0,0,0,0,0,0,0,0,0,0,0],"trees":[{"base_weights":[9.213706E-2,-8.522291E-1,1.1580136E0,-1.1593976E-1,1.3287709E-3,1.3387339E-1,2.1078004E-2],"categories":[],"categories_nodes":[],"categories_segments":[],"categories_sizes":[],"default_left":[0,0,0,0,0,0,0],"id":0,"left_children":[1,3,5,-1,-1,-1,-1],"loss_changes":[1.4978292E1,4.1458306E0,2.76515E0,0E0,0E0,0E0,0E0],"parents":[2147483647,0,0,1,1,2,2],"right_children":[2,4,6,-1,-1,-1,-1],"split_conditions":[3.282332E-1,5.861877E-2,6.099689E-1,-1.1593976E-1,1.3287709E-3,1.3387339E-1,2.1078004E-2],"split_indices":[41,32,41,0,0,0,0],"split_type":[0,0,0,0,0,0,0],"sum_hessian":[1.2899969E1,6.9461374E0,5.953832E0,3.721145E0,3.2249923E0,3.2249923E0,2.7288396E0],"tree_param":{"num_deleted":"0","num_feature":"57","num_nodes":"7","size_leaf_vector":"1"}},{"base_weights":[-6.743314E-2,-8.7649685E-1,8.0070597E-1,-1.09499045E-1,-8.458499E-3,1.22561224E-1,-1.0777987E-2],"categories":[],"categories_nodes":[],"categories_segments":[],"categories_sizes":[],"default_left":[0,0,0,0,0,0,0],"id":1,"left_children":[1,3,5,-1,-1,-1,-1],"loss_changes":[1.0105217E1,2.6655703E0,4.9818735E0,0E0,0E0,0E0,0E0],"parents":[2147483647,0,0,1,1,2,2],"right_children":[2,4,6,-1,-1,-1,-1],"split_conditions":[3.282332E-1,1.7522418E-1,6.099689E-1,-1.09499045E-1,-8.458499E-3,1.22561224E-1,-1.0777987E-2],"split_indices":[41,42,41,0,0,0,0],"split_type":[0,0,0,0,0,0,0],"sum_hessian":[1.2387914E1,6.4071407E0,5.980773E0,3.4365857E0,2.970555E0,2.9986763E0,2.9820964E0],"tree_param":{"num_deleted":"0","num_feature":"57","num_nodes":"7","size_leaf_vector":"1"}},{"base_weights":[-1.443407E-2,-8.1699944E-1,7.088066E-1,-1.09666854E-1,1.8615443E-2,-4.795116E-2,1.0772024E-1],"categories":[],"categories_nodes":[],"categories_segments":[],"categories_sizes":[],"default_left":[0,0,0,0,0,0,0],"id":2,"left_children":[1,3,5,-1,-1,-1,-1],"loss_changes":[8.455516E0,4.3283706E0,7.2081137E0,0E0,0E0,0E0,0E0],"parents":[2147483647,0,0,1,1,2,2],"right_children":[2,4,6,-1,-1,-1,-1],"split_conditions":[-2.2936976E-3,1.0394337E-1,-8.414123E-1,-1.09666854E-1,1.8615443E-2,-4.795116E-2,1.0772024E-1],"split_indices":[19,45,22,0,0,0,0],"split_type":[0,0,0,0,0,0,0],"sum_hessian":[1.2569556E1,5.8965917E0,6.672965E0,3.6597195E0,2.2368722E0,2.2065108E0,4.466454E0],"tree_param":{"num_deleted":"0","num_feature":"57","num_nodes":"7","size_leaf_vector":"1"}},{"base_weights":[9.026576E-2,-7.3450184E-1,9.979557E-1,-1.0338719E-1,3.8195532E-3,1.0992143E-1,1.115095E-2],"categories":[],"categories_nodes":[],"categories_segments":[],"categories_sizes":[],"default_left":[0,0,0,0,0,0,0],"id":3,"left_children":[1,3,5,-1,-1,-1,-1],"loss_changes":[1.1015453E1,3.4532418E0,2.0565786E0,0E0,0E0,0E0,0E0],"parents":[2147483647,0,0,1,1,2,2],"right_children":[2,4,6,-1,-1,-1,-1],"split_conditions":[2.214329E-1,1.7522418E-1,7.1822274E-1,-1.0338719E-1,3.8195532E-3,1.0992143E-1,1.115095E-2],"split_indices":[41,42,9,0,0,0,0],"split_type":[0,0,0,0,0,0,0],"sum_hessian":[1.2734966E1,6.772223E0,5.9627438E0,3.5725012E0,3.1997218E0,3.7290301E0,2.2337134E0],"tree_param":{"num_deleted":"0","num_feature":"57","num_nodes":"7","size_leaf_vector":"1"}},{"base_weights":[3.0200083E-2,-6.8554145E-1,7.464185E-1,-9.181212E-2,1.5713692E-2,1.0937515E-1,-3.6531517E-3],"categories":[],"categories_nodes":[],"categories_segments":[],"categories_sizes":[],"default_left":[0,0,0,0,0,0,0],"id":4,"left_children":[1,3,5,-1,-1,-1,-1],"loss_changes":[7.6519957E0,3.2772553E0,3.7211065E0,0E0,0E0,0E0,0E0],"parents":[2147483647,0,0,1,1,2,2],"right_children":[2,4,6,-1,-1,-1,-1],"split_conditions":[3.282332E-1,5.1323414E-1,6.099689E-1,-9.181212E-2,1.5713692E-2,1.0937515E-1,-3.6531517E-3],"split_indices":[41,11,41,0,0,0,0],"split_type":[0,0,0,0,0,0,0],"sum_hessian":[1.2928824E1,6.487988E0,6.4408364E0,4.059657E0,2.4283311E0,3.2038486E0,3.2369876E0],"tree_param":{"num_deleted":"0","num_feature":"57","num_nodes":"7","size_leaf_vector":"1"}},{"base_weights":[4.118461E-2,-8.608355E-1,1.0014917E0,-1.5576205E-2,-8.848256E-2,3.0479033E-2,1.1101907E-1],"categories":[],"categories_nodes":[],"categories_segments":[],"categories_sizes":[],"default_left":[0,0,0,0,0,0,0],"id":5,"left_children":[1,3,5,-1,-1,-1,-1],"loss_changes":[1.1931108E1,9.487324E-1,1.0654473E0,0E0,0E0,0E0,0E0],"parents":[2147483647,0,0,1,1,2,2],"right_children":[2,4,6,-1,-1,-1,-1],"split_conditions":[3.282332E-1,-2.8446287E-1,1.9006175E-1,-1.5576205E-2,-8.848256E-2,3.0479033E-2,1.1101907E-1],"split_indices":[41,34,25,0,0,0,0],"split_type":[0,0,0,0,0,0,0],"sum_hessian":[1.177855E1,6.12701E0,5.6515408E0,2.131195E0,3.9958148E0,2.930342E0,2.7211986E0],"tree_param":{"num_deleted":"0","num_feature":"57","num_nodes":"7","size_leaf_vector":"1"}},{"base_weights":[-9.584748E-2,-8.388018E-1,6.5065616E-1,-9.26295E-2,-2.5110407E-2,9.5895685E-2,-1.7389448E-2],"categories":[],"categories_nodes":[],"categories_segments":[],"categories_sizes":[],"default_left":[0,0,0,0,0,0,0],"id":6,"left_children":[1,3,5,-1,-1,-1,-1],"loss_changes":[8.098108E0,8.5278845E-1,3.759671E0,0E0,0E0,0E0,0E0],"parents":[2147483647,0,0,1,1,2,2],"right_children":[2,4,6,-1,-1,-1,-1],"split_conditions":[3.282332E-1,1.7522418E-1,7.1822274E-1,-9.26295E-2,-2.5110407E-2,9.5895685E-2,-1.7389448E-2],"split_indices":[41,42,9,0,0,0,0],"split_type":[0,0,0,0,0,0,0],"sum_hessian":[1.2617185E1,6.2616577E0,6.3555264E0,3.1445127E0,3.117145E0,3.6623192E0,2.6932075E0],"tree_param":{"num_deleted":"0","num_feature":"57","num_nodes":"7","size_leaf_vector":"1"}},{"base_weights":[-1.4438038E-1,-9.04901E-1,3.9375627E-1,-8.753426E-2,-3.101802E-2,-3.774286E-2,8.5055983E-1,1.0509836E-1,5.8652833E-3],"categories":[],"categories_nodes":[],"categories_segments":[],"categories_sizes":[],"default_left":[0,0,0,0,0,0,0,0,0],"id":7,"left_children":[1,3,5,-1,-1,-1,7,-1,-1],"loss_changes":[5.4803243E0,1.13296986E-1,3.5757346E0,0E0,0E0,0E0,1.9239936E0,0E0,0E0],"parents":[2147483647,0,0,1,1,2,2,6,6],"right_children":[2,4,6,-1,-1,-1,8,-1,-1],"split_conditions":[4.62254E-2,-4.4243252E-1,-6.8236446E-1,-8.753426E-2,-3.101802E-2,-3.774286E-2,-1.527607E-1,1.0509836E-1,5.8652833E-3],"split_indices":[41,29,10,0,0,0,40,0,0],"split_type":[0,0,0,0,0,0,0,0,0],"sum_hessian":[1.152007E1,4.49126E0,7.02881E0,2.4711742E0,2.0200858E0,2.4167686E0,4.6120415E0,2.4574025E0,2.1546392E0],"tree_param":{"num_deleted":"0","num_feature":"57","num_nodes":"9","size_leaf_vector":"1"}},{"base_weights":[1.5312193E-2,-5.5764914E-1,5.920357E-1,-7.9137646E-2,1.38455415E-2,9.7495995E-2,-1.2161261E-2],"categories":[],"categories_nodes":[],"categories_segments":[],"categories_sizes":[],"default_left":[0,0,0,0,0,0,0],"id":8,"left_children":[1,3,5,-1,-1,-1,-1],"loss_changes":[4.8304887E0,2.488086E0,3.5761552E0,0E0,0E0,0E0,0E0],"parents":[2147483647,0,0,1,1,2,2],"right_children":[2,4,6,-1,-1,-1,-1],"split_conditions":[3.282332E-1,5.1323414E-1,6.099689E-1,-7.9137646E-2,1.38455415E-2,9.7495995E-2,-1.2161261E-2],"split_indices":[41,11,41,0,0,0,0],"split_type":[0,0,0,0,0,0,0],"sum_hessian":[1.26192255E1,6.3468504E0,6.2723746E0,3.767785E0,2.5790656E0,3.0584903E0,3.213884E0],"tree_param":{"num_deleted":"0","num_feature":"57","num_nodes":"7","size_leaf_vector":"1"}},{"base_weights":[2.2669142E-2,-6.069221E-1,8.181436E-1,-8.697909E-2,2.5965804E-2,9.500224E-2,1.8743498E-2],"categories":[],"categories_nodes":[],"categories_segments":[],"categories_sizes":[],"default_left":[0,0,0,0,0,0,0],"id":9,"left_children":[1,3,5,-1,-1,-1,-1],"loss_changes":[6.228347E0,3.4680345E0,9.0407896E-1,0E0,0E0,0E0,0E0],"parents":[2147483647,0,0,1,1,2,2],"right_children":[2,4,6,-1,-1,-1,-1],"split_conditions":[3.275229E-1,5.40413E-1,1.5475404E-1,-8.697909E-2,2.5965804E-2,9.500224E-2,1.8743498E-2],"split_indices":[32,39,11,0,0,0,0],"split_type":[0,0,0,0,0,0,0],"sum_hessian":[1.0444739E1,5.9625854E0,4.482154E0,3.8237212E0,2.1388643E0,2.1119957E0,2.3701582E0],"tree_param":{"num_deleted":"0","num_feature":"57","num_nodes":"7","size_leaf_vector":"1"}},{"base_weights":[3.620167E-2,-6.0575247E-1,6.020517E-1,-8.2135685E-2,1.2042759E-2,-2.7000537E-2,8.786428E-2],"categories":[],"categories_nodes":[],"categories_segments":[],"categories_sizes":[],"default_left":[0,0,0,0,0,0,0],"id":10,"left_children":[1,3,5,-1,-1,-1,-1],"loss_changes":[5.0034685E0,2.2178843E0,3.7692194E0,0E0,0E0,0E0,0E0],"parents":[2147483647,0,0,1,1,2,2],"right_children":[2,4,6,-1,-1,-1,-1],"split_conditions":[5.861877E-2,1.0169902E-1,-2.0398936E-1,-8.2135685E-2,1.2042759E-2,-2.7000537E-2,8.786428E-2],"split_indices":[32,23,19,0,0,0,0],"split_type":[0,0,0,0,0,0,0],"sum_hessian":[1.1770205E1,5.4812427E0,6.288962E0,3.2916095E0,2.1896334E0,2.2841837E0,4.004778E0],"tree_param":{"num_deleted":"0","num_feature":"57","num_nodes":"7","size_leaf_vector":"1"}},{"base_weights":[-1.9665293E-2,-5.569945E-1,6.443591E-1,-8.3959915E-2,3.9200502E-4,9.1000766E-2,-1.2656239E-2],"categories":[],"categories_nodes":[],"categories_segments":[],"categories_sizes":[],"default_left":[0,0,0,0,0,0,0],"id":11,"left_children":[1,3,5,-1,-1,-1,-1],"loss_changes":[4.8680105E0,2.0866272E0,2.6006005E0,0E0,0E0,0E0,0E0],"parents":[2147483647,0,0,1,1,2,2],"right_children":[2,4,6,-1,-1,-1,-1],"split_conditions":[3.282332E-1,1.7522418E-1,8.8866544E-1,-8.3959915E-2,3.9200502E-4,9.1000766E-2,-1.2656239E-2],"split_indices":[41,42,41,0,0,0,0],"split_type":[0,0,0,0,0,0,0],"sum_hessian":[1.1637639E1,6.5215654E0,5.1160736E0,3.0129275E0,3.5086381E0,2.9103825E0,2.2056909E0],"tree_param":{"num_deleted":"0","num_feature":"57","num_nodes":"7","size_leaf_vector":"1"}},{"base_weights":[5.49827E-2,-5.966289E-1,6.9383776E-1,-8.763947E-2,1.6211258E-2,-1.8966595E-2,9.72451E-2],"categories":[],"categories_nodes":[],"categories_segments":[],"categories_sizes":[],"default_left":[0,0,0,0,0,0,0],"id":12,"left_children":[1,3,5,-1,-1,-1,-1],"loss_changes":[5.563526E0,2.8781765E0,3.546462E0,0E0,0E0,0E0,0E0],"parents":[2147483647,0,0,1,1,2,2],"right_children":[2,4,6,-1,-1,-1,-1],"split_conditions":[-2.2936976E-3,1.0394337E-1,-3.4879777E-1,-8.763947E-2,1.6211258E-2,-1.8966595E-2,9.72451E-2],"split_indices":[19,45,35,0,0,0,0],"split_type":[0,0,0,0,0,0,0],"sum_hessian":[1.1370269E1,5.6616573E0,5.7086115E0,3.2577274E0,2.4039302E0,2.2462277E0,3.4623835E0],"tree_param":{"num_deleted":"0","num_feature":"57","num_nodes":"7","size_leaf_vector":"1"}},{"base_weights":[-5.2341367E-3,-5.8752203E-1,4.394975E-1,-7.5473696E-2,-2.176752E-3,8.255394E-2,-1.1892608E-2],"categories":[],"categories_nodes":[],"categories_segments":[],"categories_sizes":[],"default_left":[0,0,0,0,0,0,0],"id":13,"left_children":[1,3,5,-1,-1,-1,-1],"loss_changes":[3.2386672E0,1.0535218E0,2.6264272E0,0E0,0E0,0E0,0E0],"parents":[2147483647,0,0,1,1,2,2],"right_children":[2,4,6,-1,-1,-1,-1],"split_conditions":[5.861877E-2,3.282332E-1,-2.4408425E-1,-7.5473696E-2,-2.176752E-3,8.255394E-2,-1.1892608E-2],"split_indices":[32,41,20,0,0,0,0],"split_type":[0,0,0,0,0,0,0],"sum_hessian":[1.0509235E1,4.411794E0,6.0974407E0,2.2799046E0,2.1318898E0,2.6617992E0,3.4356418E0],"tree_param":{"num_deleted":"0","num_feature":"57","num_nodes":"7","size_leaf_vector":"1"}},{"base_weights":[2.1135293E-2,-5.227025E-1,6.2819713E-1,-8.53609E-2,2.1390868E-2,-1.1077131E-2,8.717711E-2],"categories":[],"categories_nodes":[],"categories_segments":[],"categories_sizes":[],"default_left":[0,0,0,0,0,0,0],"id":14,"left_children":[1,3,5,-1,-1,-1,-1],"loss_changes":[4.313242E0,3.2580152E0,2.3296523E0,0E0,0E0,0E0,0E0],"parents":[2147483647,0,0,1,1,2,2],"right_children":[2,4,6,-1,-1,-1,-1],"split_conditions":[-2.2936976E-3,1.0394337E-1,-6.124087E-1,-8.53609E-2,2.1390868E-2,-1.1077131E-2,8.717711E-2],"split_indices":[19,45,31,0,0,0,0],"split_type":[0,0,0,0,0,0,0],"sum_hessian":[1.1070161E1,5.9124455E0,5.1577153E0,3.2931962E0,2.6192493E0,2.2011669E0,2.9565485E0],"tree_param":{"num_deleted":"0","num_feature":"57","num_nodes":"7","size_leaf_vector":"1"}},{"base_weights":[3.7296765E-2,-5.8140504E-1,5.0655943E-1,4.932085E-3,-8.449252E-2,9.9903625E-1,-3.8645502E-2,3.7221383E-2,9.556434E-2],"categories":[],"categories_nodes":[],"categories_segments":[],"categories_sizes":[],"default_left":[0,0,0,0,0,0,0,0,0],"id":15,"left_children":[1,3,5,-1,-1,7,-1,-1,-1],"loss_changes":[3.8812957E0,1.8340191E0,4.1670365E0,0E0,0E0,5.0287247E-3,0E0,0E0,0E0],"parents":[2147483647,0,0,1,1,2,2,5,5],"right_children":[2,4,6,-1,-1,8,-1,-1,-1],"split_conditions":[-5.6097563E-2,2.1068583E-1,8.086103E-1,4.932085E-3,-8.449252E-2,8.447963E-2,-3.8645502E-2,3.7221383E-2,9.556434E-2],"split_indices":[42,26,22,0,0,32,0,0,0],"split_type":[0,0,0,0,0,0,0,0,0],"sum_hessian":[1.13539915E1,4.7941475E0,6.5598445E0,2.4057174E0,2.38843E0,4.3737783E0,2.1860662E0,2.078658E0,2.2951205E0],"tree_param":{"num_deleted":"0","num_feature":"57","num_nodes":"9","size_leaf_vector":"1"}},{"base_weights":[-8.097656E-3,-5.2829427E-1,4.8540953E-1,1.7968645E-2,-7.695834E-2,-1.7213672E-2,8.919645E-2],"categories":[],"categories_nodes":[],"categories_segments":[],"categories_sizes":[],"default_left":[0,0,0,0,0,0,0],"id":16,"left_children":[1,3,5,-1,-1,-1,-1],"loss_changes":[3.463158E0,2.3580387E0,3.2968633E0,0E0,0E0,0E0,0E0],"parents":[2147483647,0,0,1,1,2,2],"right_children":[2,4,6,-1,-1,-1,-1],"split_conditions":[6.660821E-2,-3.4265256E-1,-3.6596066E-1,1.7968645E-2,-7.695834E-2,-1.7213672E-2,8.919645E-2],"split_indices":[46,12,35,0,0,0,0],"split_type":[0,0,0,0,0,0,0],"sum_hessian":[1.1491076E1,5.559949E0,5.931127E0,2.2083023E0,3.351647E0,3.118721E0,2.8124063E0],"tree_param":{"num_deleted":"0","num_feature":"57","num_nodes":"7","size_leaf_vector":"1"}},{"base_weights":[-2.7658932E-2,-6.366321E-1,4.2607358E-1,-7.450192E-2,-7.7349725E-3,8.318982E-2,-1.8115303E-2],"categories":[],"categories_nodes":[],"categories_segments":[],"categories_sizes":[],"default_left":[0,0,0,0,0,0,0],"id":17,"left_children":[1,3,5,-1,-1,-1,-1],"loss_changes":[3.570843E0,7.8487706E-1,3.2161198E0,0E0,0E0,0E0,0E0],"parents":[2147483647,0,0,1,1,2,2],"right_children":[2,4,6,-1,-1,-1,-1],"split_conditions":[5.861877E-2,3.282332E-1,-2.4408425E-1,-7.450192E-2,-7.7349725E-3,8.318982E-2,-1.8115303E-2],"split_indices":[32,41,20,0,0,0,0],"split_type":[0,0,0,0,0,0,0],"sum_hessian":[1.0941587E1,4.49951E0,6.442078E0,2.4421165E0,2.0573933E0,3.0136235E0,3.4284544E0],"tree_param":{"num_deleted":"0","num_feature":"57","num_nodes":"7","size_leaf_vector":"1"}},{"base_weights":[-2.254156E-2,-6.5218306E-1,4.4411772E-1,-8.3680525E-2,-1.8938234E-3,7.953649E-2,-9.3873795E-3],"categories":[],"categories_nodes":[],"categories_segments":[],"categories_sizes":[],"default_left":[0,0,0,0,0,0,0],"id":18,"left_children":[1,3,5,-1,-1,-1,-1],"loss_changes":[3.8775587E0,1.3620791E0,2.4664223E0,0E0,0E0,0E0,0E0],"parents":[2147483647,0,0,1,1,2,2],"right_children":[2,4,6,-1,-1,-1,-1],"split_conditions":[5.861877E-2,1.0169902E-1,-2.4408425E-1,-8.3680525E-2,-1.8938234E-3,7.953649E-2,-9.3873795E-3],"split_indices":[32,24,20,0,0,0,0],"split_type":[0,0,0,0,0,0,0],"sum_hessian":[1.1210926E1,4.6028967E0,6.60803E0,2.4213924E0,2.181504E0,2.9484978E0,3.659532E0],"tree_param":{"num_deleted":"0","num_feature":"57","num_nodes":"7","size_leaf_vector":"1"}},{"base_weights":[5.478167E-2,-4.375356E-2,4.3169782E-1,8.252515E-1,-3.442312E-2,1.5582596E-2,9.0506285E-2],"categories":[],"categories_nodes":[],"categories_segments":[],"categories_sizes":[],"default_left":[0,0,0,0,0,0,0],"id":19,"left_children":[1,-1,3,5,-1,-1,-1],"loss_changes":[2.8392463E0,0E0,2.9388013E0,8.5479736E-1,0E0,0E0,0E0],"parents":[2147483647,0,0,2,2,3,3],"right_children":[2,-1,4,6,-1,-1,-1],"split_conditions":[-5.6097563E-2,-4.375356E-2,8.086103E-1,1.3893095E-2,-3.442312E-2,1.5582596E-2,9.0506285E-2],"split_indices":[42,0,22,32,0,0,0],"split_type":[0,0,0,0,0,0,0],"sum_hessian":[1.047816E1,3.8619633E0,6.616197E0,4.5715847E0,2.0446122E0,2.0288553E0,2.5427294E0],"tree_param":{"num_deleted":"0","num_feature":"57","num_nodes":"7","size_leaf_vector":"1"}},{"base_weights":[2.3284748E-2,-5.0123113E-1,5.177176E-1,8.802565E-3,-6.6541955E-2,7.3301606E-2,-1.3416643E-2],"categories":[],"categories_nodes":[],"categories_segments":[],"categories_sizes":[],"default_left":[0,0,0,0,0,0,0],"id":20,"left_children":[1,3,5,-1,-1,-1,-1],"loss_changes":[3.27094E0,1.3326476E0,1.9209508E0,0E0,0E0,0E0,0E0],"parents":[2147483647,0,0,1,1,2,2],"right_children":[2,4,6,-1,-1,-1,-1],"split_conditions":[3.282332E-1,-4.987556E-2,4.6636984E-1,8.802565E-3,-6.6541955E-2,7.3301606E-2,-1.3416643E-2],"split_indices":[41,16,46,0,0,0,0],"split_type":[0,0,0,0,0,0,0],"sum_hessian":[1.0612049E1,5.1426997E0,5.4693494E0,2.0390558E0,3.103644E0,3.2454414E0,2.223908E0],"tree_param":{"num_deleted":"0","num_feature":"57","num_nodes":"7","size_leaf_vector":"1"}},{"base_weights":[1.2302436E-1,4.0224996E-1,-3.7105355E-2,8.999855E-1,-4.583253E-2,9.059608E-2,2.6998973E-2],"categories":[],"categories_nodes":[],"categories_segments":[],"categories_sizes":[],"default_left":[0,0,0,0,0,0,0],"id":21,"left_children":[1,3,-1,5,-1,-1,-1],"loss_changes":[1.989451E0,4.3940835E0,0E0,3.6046028E-1,0E0,0E0,0E0],"parents":[2147483647,0,0,1,1,3,3],"right_children":[2,4,-1,6,-1,-1,-1],"split_conditions":[7.1822274E-1,5.671744E-1,-3.7105355E-2,7.534876E-2,-4.583253E-2,9.059608E-2,2.6998973E-2],"split_indices":[9,12,0,7,0,0,0],"split_type":[0,0,0,0,0,0,0],"sum_hessian":[1.0002492E1,6.9907613E0,3.0117307E0,4.6794047E0,2.3113568E0,2.5940855E0,2.085319E0],"tree_param":{"num_deleted":"0","num_feature":"57","num_nodes":"7","size_leaf_vector":"1"}},{"base_weights":[-1.0795432E-1,-4.21823E-1,5.5339064E-2,-7.22481E-2,1.3019367E-2],"categories":[],"categories_nodes":[],"categories_segments":[],"categories_sizes":[],"default_left":[0,0,0,0,0],"id":22,"left_children":[1,3,-1,-1,-1],"loss_changes":[2.8226316E0,2.3589303E0,0E0,0E0,0E0],"parents":[2147483647,0,0,1,1],"right_children":[2,4,-1,-1,-1],"split_conditions":[4.5743623E-1,1.7522418E-1,5.5339064E-2,-7.22481E-2,1.3019367E-2],"split_indices":[45,42,0,0,0],"split_type":[0,0,0,0,0],"sum_hessian":[9.083092E0,6.862264E0,2.220828E0,3.4647713E0,3.3974926E0],"tree_param":{"num_deleted":"0","num_feature":"57","num_nodes":"5","size_leaf_vector":"1"}},{"base_weights":[-7.296376E-2,-5.4138806E-2,3.420272E-1,-2.575222E-2,7.490905E-2],"categories":[],"categories_nodes":[],"categories_segments":[],"categories_sizes":[],"default_left":[0,0,0,0,0],"id":23,"left_children":[1,-1,3,-1,-1],"loss_changes":[2.953777E0,0E0,3.1044004E0,0E0,0E0],"parents":[2147483647,0,0,2,2],"right_children":[2,-1,4,-1,-1],"split_conditions":[-5.6097563E-2,-5.4138806E-2,-2.0398936E-1,-2.575222E-2,7.490905E-2],"split_indices":[42,0,19,0,0],"split_type":[0,0,0,0,0],"sum_hessian":[9.864938E0,3.7615407E0,6.1033974E0,3.0994258E0,3.0039718E0],"tree_param":{"num_deleted":"0","num_feature":"57","num_nodes":"5","size_leaf_vector":"1"}},{"base_weights":[3.7364185E-2,3.8126555E-1,-4.7687393E-2,-1.9818276E-2,8.2672015E-2],"categories":[],"categories_nodes":[],"categories_segments":[],"categories_sizes":[],"default_left":[0,0,0,0,0],"id":24,"left_children":[1,3,-1,-1,-1],"loss_changes":[2.5362146E0,3.323975E0,0E0,0E0,0E0],"parents":[2147483647,0,0,1,1],"right_children":[2,4,-1,-1,-1],"split_conditions":[7.1822274E-1,2.214329E-1,-4.7687393E-2,-1.9818276E-2,8.2672015E-2],"split_indices":[9,41,0,0,0],"split_type":[0,0,0,0,0],"sum_hessian":[9.59895E0,6.4794164E0,3.1195338E0,3.61389E0,2.8655262E0],"tree_param":{"num_deleted":"0","num_feature":"57","num_nodes":"5","size_leaf_vector":"1"}},{"base_weights":[3.7266325E-2,-4.4833258E-2,4.5877498E-1,7.149684E-2,-2.0155315E-3],"categories":[],"categories_nodes":[],"categories_segments":[],"categories_sizes":[],"default_left":[0,0,0,0,0],"id":25,"left_children":[1,-1,3,-1,-1],"loss_changes":[2.9610345E0,0E0,1.4631382E0,0E0,0E0],"parents":[2147483647,0,0,2,2],"right_children":[2,-1,4,-1,-1],"split_conditions":[5.861877E-2,-4.4833258E-2,-2.4408425E-1,7.149684E-2,-2.0155315E-3],"split_indices":[32,0,20,0,0],"split_type":[0,0,0,0,0],"sum_hessian":[9.73294E0,3.8889792E0,5.843961E0,2.631998E0,3.2119627E0],"tree_param":{"num_deleted":"0","num_feature":"57","num_nodes":"5","size_leaf_vector":"1"}},{"base_weights":[2.5237927E-2,-5.6711274E-1,4.8132992E-1,-7.562136E-2,6.678064E-4,7.871801E-2,-2.6514584E-3],"categories":[],"categories_nodes":[],"categories_segments":[],"categories_sizes":[],"default_left":[0,0,0,0,0,0,0],"id":26,"left_children":[1,3,5,-1,-1,-1,-1],"loss_changes":[3.1714046E0,1.123399E0,1.7399299E0,0E0,0E0,0E0,0E0],"parents":[2147483647,0,0,1,1,2,2],"right_children":[2,4,6,-1,-1,-1,-1],"split_conditions":[5.861877E-2,1.0169902E-1,-2.4408425E-1,-7.562136E-2,6.678064E-4,7.871801E-2,-2.6514584E-3],"split_indices":[32,23,20,0,0,0,0],"split_type":[0,0,0,0,0,0,0],"sum_hessian":[9.728337E0,4.126116E0,5.6022215E0,2.1021168E0,2.023999E0,2.3720844E0,3.2301373E0],"tree_param":{"num_deleted":"0","num_feature":"57","num_nodes":"7","size_leaf_vector":"1"}},{"base_weights":[-1.1369279E-1,-5.516953E-1,3.1195682E-1,-7.281256E-2,3.6177423E-3,-2.2182992E-2,6.522941E-2],"categories":[],"categories_nodes":[],"categories_segments":[],"categories_sizes":[],"default_left":[0,0,0,0,0,0,0],"id":27,"left_children":[1,3,5,-1,-1,-1,-1],"loss_changes":[2.1045964E0,1.2115449E0,1.9749305E0,0E0,0E0,0E0,0E0],"parents":[2147483647,0,0,1,1,2,2],"right_children":[2,4,6,-1,-1,-1,-1],"split_conditions":[-2.2936976E-3,1.0394337E-1,1.7522418E-1,-7.281256E-2,3.6177423E-3,-2.2182992E-2,6.522941E-2],"split_indices":[19,45,42,0,0,0,0],"split_type":[0,0,0,0,0,0,0],"sum_hessian":[9.365465E0,4.4698105E0,4.8956547E0,2.4648507E0,2.0049596E0,2.4624872E0,2.4331677E0],"tree_param":{"num_deleted":"0","num_feature":"57","num_nodes":"7","size_leaf_vector":"1"}},{"base_weights":[-3.288203E-2,-3.525392E-1,4.9952134E-2,-7.068416E-2,8.565775E-3],"categories":[],"categories_nodes":[],"categories_segments":[],"categories_sizes":[],"default_left":[0,0,0,0,0],"id":28,"left_children":[1,3,-1,-1,-1],"loss_changes":[2.368482E0,1.9295864E0,0E0,0E0,0E0],"parents":[2147483647,0,0,1,1],"right_children":[2,4,-1,-1,-1],"split_conditions":[6.995949E-1,2.214329E-1,4.9952134E-2,-7.068416E-2,8.565775E-3],"split_indices":[32,41,0,0,0],"split_type":[0,0,0,0,0],"sum_hessian":[9.225132E0,6.518586E0,2.7065454E0,2.5964193E0,3.9221668E0],"tree_param":{"num_deleted":"0","num_feature":"57","num_nodes":"5","size_leaf_vector":"1"}},{"base_weights":[7.569504E-2,-4.060379E-1,5.329566E-1,1.2357713E-2,-6.6364676E-2,-2.6508868E-3,7.550429E-2],"categories":[],"categories_nodes":[],"categories_segments":[],"categories_sizes":[],"default_left":[0,0,0,0,0,0,0],"id":29,"left_children":[1,3,5,-1,-1,-1,-1],"loss_changes":[2.3402677E0,1.3774703E0,1.2822933E0,0E0,0E0,0E0,0E0],"parents":[2147483647,0,0,1,1,2,2],"right_children":[2,4,6,-1,-1,-1,-1],"split_conditions":[1.9006175E-1,8.27408E-2,2.214329E-1,1.2357713E-2,-6.6364676E-2,-2.6508868E-3,7.550429E-2],"split_indices":[25,11,41,0,0,0,0],"split_type":[0,0,0,0,0,0,0],"sum_hessian":[8.641759E0,4.2628236E0,4.3789353E0,2.1081095E0,2.154714E0,2.2281654E0,2.1507697E0],"tree_param":{"num_deleted":"0","num_feature":"57","num_nodes":"7","size_leaf_vector":"1"}},{"base_weights":[-1.3939324E-1,-5.7272965E-1,2.8935257E-1,-7.906191E-3,-7.112087E-2,-2.984038E-2,6.301213E-2],"categories":[],"categories_nodes":[],"categories_segments":[],"categories_sizes":[],"default_left":[0,0,0,0,0,0,0],"id":30,"left_children":[1,3,5,-1,-1,-1,-1],"loss_changes":[2.0254538E0,7.0862186E-1,2.1737442E0,0E0,0E0,0E0,0E0],"parents":[2147483647,0,0,1,1,2,2],"right_children":[2,4,6,-1,-1,-1,-1],"split_conditions":[-2.2936976E-3,5.2632667E-2,-3.4879777E-1,-7.906191E-3,-7.112087E-2,-2.984038E-2,6.301213E-2],"split_indices":[19,33,35,0,0,0,0],"split_type":[0,0,0,0,0,0,0],"sum_hessian":[9.009804E0,4.3138947E0,4.695909E0,2.2520247E0,2.06187E0,2.1240234E0,2.5718856E0],"tree_param":{"num_deleted":"0","num_feature":"57","num_nodes":"7","size_leaf_vector":"1"}},{"base_weights":[-8.70326E-2,2.3822258E-1,-5.818022E-2,-2.611164E-2,5.0488513E-2],"categories":[],"categories_nodes":[],"categories_segments":[],"categories_sizes":[],"default_left":[0,0,0,0,0],"id":31,"left_children":[1,3,-1,-1,-1],"loss_changes":[2.1922266E0,1.799301E0,0E0,0E0,0E0],"parents":[2147483647,0,0,1,1],"right_children":[2,4,-1,-1,-1],"split_conditions":[7.4858695E-1,-5.107229E-1,-5.818022E-2,-2.611164E-2,5.0488513E-2],"split_indices":[4,2,0,0,0],"split_type":[0,0,0,0,0],"sum_hessian":[8.695677E0,6.182597E0,2.5130796E0,2.6062934E0,3.5763037E0],"tree_param":{"num_deleted":"0","num_feature":"57","num_nodes":"5","size_leaf_vector":"1"}},{"base_weights":[-2.0104416E-2,-4.7559652E-2,3.798611E-1,6.368083E-2,-3.8876801E-3],"categories":[],"categories_nodes":[],"categories_segments":[],"categories_sizes":[],"default_left":[0,0,0,0,0],"id":32,"left_children":[1,-1,3,-1,-1],"loss_changes":[2.513512E0,0E0,1.1941485E0,0E0,0E0],"parents":[2147483647,0,0,2,2],"right_children":[2,-1,4,-1,-1],"split_conditions":[5.861877E-2,-4.7559652E-2,-2.4408425E-1,6.368083E-2,-3.8876801E-3],"split_indices":[32,0,20,0,0],"split_type":[0,0,0,0,0],"sum_hessian":[8.957861E0,3.477479E0,5.480382E0,2.3449447E0,3.1354373E0],"tree_param":{"num_deleted":"0","num_feature":"57","num_nodes":"5","size_leaf_vector":"1"}},{"base_weights":[9.8633185E-2,-3.0703317E-2,4.6457118E-1,6.498255E-2,-5.9929215E-3],"categories":[],"categories_nodes":[],"categories_segments":[],"categories_sizes":[],"default_left":[0,0,0,0,0],"id":33,"left_children":[1,-1,3,-1,-1],"loss_changes":[1.7527132E0,0E0,1.0970283E0,0E0,0E0],"parents":[2147483647,0,0,2,2],"right_children":[2,-1,4,-1,-1],"split_conditions":[-5.6097563E-2,-3.0703317E-2,6.866769E-1,6.498255E-2,-5.9929215E-3],"split_indices":[42,0,22,0,0],"split_type":[0,0,0,0,0],"sum_hessian":[7.918301E0,3.3944843E0,4.5238166E0,2.4433475E0,2.0804691E0],"tree_param":{"num_deleted":"0","num_feature":"57","num_nodes":"5","size_leaf_vector":"1"}},{"base_weights":[-4.308141E-2,-5.381517E-2,3.6455762E-1,6.493037E-2,-2.3049382E-3],"categories":[],"categories_nodes":[],"categories_segments":[],"categories_sizes":[],"default_left":[0,0,0,0,0],"id":34,"left_children":[1,-1,3,-1,-1],"loss_changes":[2.6732996E0,0E0,1.147343E0,0E0,0E0],"parents":[2147483647,0,0,2,2],"right_children":[2,-1,4,-1,-1],"split_conditions":[5.861877E-2,-5.381517E-2,4.7954896E-1,6.493037E-2,-2.3049382E-3],"split_indices":[32,0,33,0,0],"split_type":[0,0,0,0,0],"sum_hessian":[8.460503E0,3.0694518E0,5.391051E0,2.0256188E0,3.365432E0],"tree_param":{"num_deleted":"0","num_feature":"57","num_nodes":"5","size_leaf_vector":"1"}},{"base_weights":[1.1589205E-1,-3.0965995E-2,4.669909E-1,1.1726351E-3,5.5948153E-2],"categories":[],"categories_nodes":[],"categories_segments":[],"categories_sizes":[],"default_left":[0,0,0,0,0],"id":35,"left_children":[1,-1,3,-1,-1],"loss_changes":[1.8815491E0,0E0,6.3352764E-1,0E0,0E0],"parents":[2147483647,0,0,2,2],"right_children":[2,-1,4,-1,-1],"split_conditions":[-5.6097563E-2,-3.0965995E-2,6.660821E-2,1.1726351E-3,5.5948153E-2],"split_indices":[42,0,46,0,0],"split_type":[0,0,0,0,0],"sum_hessian":[8.631224E0,3.5060956E0,5.1251283E0,2.1000607E0,3.0250673E0],"tree_param":{"num_deleted":"0","num_feature":"57","num_nodes":"5","size_leaf_vector":"1"}},{"base_weights":[2.2713467E-4,-4.220119E-1,4.0878195E-1,-6.629735E-2,9.712106E-3,-1.0919548E-2,7.140655E-2],"categories":[],"categories_nodes":[],"categories_segments":[],"categories_sizes":[],"default_left":[0,0,0,0,0,0,0],"id":36,"left_children":[1,3,5,-1,-1,-1,-1],"loss_changes":[1.848064E0,1.2649932E0,1.5580932E0,0E0,0E0,0E0,0E0],"parents":[2147483647,0,0,1,1,2,2],"right_children":[2,4,6,-1,-1,-1,-1],"split_conditions":[-2.2936976E-3,1.0394337E-1,7.226034E-1,-6.629735E-2,9.712106E-3,-1.0919548E-2,7.140655E-2],"split_indices":[19,45,14,0,0,0,0],"split_type":[0,0,0,0,0,0,0],"sum_hessian":[8.712913E0,4.268502E0,4.444411E0,2.1410565E0,2.1274457E0,2.426945E0,2.0174658E0],"tree_param":{"num_deleted":"0","num_feature":"57","num_nodes":"7","size_leaf_vector":"1"}},{"base_weights":[-1.3493673E-2,-3.9488476E-2,3.4502086E-1,6.0185436E-2,-5.3807776E-3],"categories":[],"categories_nodes":[],"categories_segments":[],"categories_sizes":[],"default_left":[0,0,0,0,0],"id":37,"left_children":[1,-1,3,-1,-1],"loss_changes":[1.8481623E0,0E0,1.0865326E0,0E0,0E0],"parents":[2147483647,0,0,2,2],"right_children":[2,-1,4,-1,-1],"split_conditions":[5.861877E-2,-3.9488476E-2,-2.4408425E-1,6.0185436E-2,-5.3807776E-3],"split_indices":[32,0,20,0,0],"split_type":[0,0,0,0,0],"sum_hessian":[8.747778E0,3.5786047E0,5.169173E0,2.1854086E0,2.9837642E0],"tree_param":{"num_deleted":"0","num_feature":"57","num_nodes":"5","size_leaf_vector":"1"}},{"base_weights":[3.3774305E-2,-3.2629777E-2,3.5948995E-1,-3.1488722E-3,5.167885E-2],"categories":[],"categories_nodes":[],"categories_segments":[],"categories_sizes":[],"default_left":[0,0,0,0,0],"id":38,"left_children":[1,-1,3,-1,-1],"loss_changes":[1.4612956E0,0E0,6.8720764E-1,0E0,0E0],"parents":[2147483647,0,0,2,2],"right_children":[2,-1,4,-1,-1],"split_conditions":[5.861877E-2,-3.2629777E-2,6.660821E-2,-3.1488722E-3,5.167885E-2],"split_indices":[32,0,46,0,0],"split_type":[0,0,0,0,0],"sum_hessian":[8.139095E0,3.347668E0,4.791427E0,2.3635607E0,2.4278662E0],"tree_param":{"num_deleted":"0","num_feature":"57","num_nodes":"5","size_leaf_vector":"1"}},{"base_weights":[1.094748E-2,3.9194104E-1,-3.4246445E-2,-8.049666E-3,6.148396E-2],"categories":[],"categories_nodes":[],"categories_segments":[],"categories_sizes":[],"default_left":[0,0,0,0,0],"id":39,"left_children":[1,3,-1,-1,-1],"loss_changes":[1.6060346E0,1.028142E0,0E0,0E0,0E0],"parents":[2147483647,0,0,1,1],"right_children":[2,4,-1,-1,-1],"split_conditions":[1.7626981E-1,-2.5652696E-3,-3.4246445E-2,-8.049666E-3,6.148396E-2],"split_indices":[1,46,0,0,0],"split_type":[0,0,0,0,0],"sum_hessian":[7.598549E0,4.1255784E0,3.472971E0,2.1051285E0,2.0204496E0],"tree_param":{"num_deleted":"0","num_feature":"57","num_nodes":"5","size_leaf_vector":"1"}},{"base_weights":[6.79629E-2,-2.9627843E-2,4.4082502E-1,2.4531577E-3,5.7970714E-2],"categories":[],"categories_nodes":[],"categories_segments":[],"categories_sizes":[],"default_left":[0,0,0,0,0],"id":40,"left_children":[1,-1,3,-1,-1],"loss_changes":[1.6300023E0,0E0,5.9543717E-1,0E0,0E0],"parents":[2147483647,0,0,2,2],"right_children":[2,-1,4,-1,-1],"split_conditions":[5.861877E-2,-2.9627843E-2,6.660821E-2,2.4531577E-3,5.7970714E-2],"split_indices":[32,0,46,0,0],"split_type":[0,0,0,0,0],"sum_hessian":[7.9747767E0,3.6687684E0,4.3060083E0,2.2141564E0,2.091852E0],"tree_param":{"num_deleted":"0","num_feature":"57","num_nodes":"5","size_leaf_vector":"1"}},{"base_weights":[-6.0512286E-2,1.9689624E-1,-4.4717148E-2,-2.2175739E-2,4.6814423E-2],"categories":[],"categories_nodes":[],"categories_segments":[],"categories_sizes":[],"default_left":[0,0,0,0,0],"id":41,"left_children":[1,3,-1,-1,-1],"loss_changes":[1.3038237E0,1.4277922E0,0E0,0E0,0E0],"parents":[2147483647,0,0,1,1],"right_children":[2,4,-1,-1,-1],"split_conditions":[5.848511E-1,-4.3243706E-1,-4.4717148E-2,-2.2175739E-2,4.6814423E-2],"split_indices":[4,5,0,0,0],"split_type":[0,0,0,0,0],"sum_hessian":[8.304067E0,5.8750715E0,2.4289951E0,2.774058E0,3.1010134E0],"tree_param":{"num_deleted":"0","num_feature":"57","num_nodes":"5","size_leaf_vector":"1"}},{"base_weights":[5.7958204E-2,3.4381023E-1,-3.8394418E-2,5.290006E-2,-1.5302876E-2],"categories":[],"categories_nodes":[],"categories_segments":[],"categories_sizes":[],"default_left":[0,0,0,0,0],"id":42,"left_children":[1,3,-1,-1,-1],"loss_changes":[1.5303108E0,1.2103539E0,0E0,0E0,0E0],"parents":[2147483647,0,0,1,1],"right_children":[2,4,-1,-1,-1],"split_conditions":[7.1822274E-1,3.7421188E-1,-3.8394418E-2,5.290006E-2,-1.5302876E-2],"split_indices":[9,12,0,0,0],"split_type":[0,0,0,0,0],"sum_hessian":[7.879662E0,5.3808904E0,2.4987714E0,3.2293499E0,2.1515405E0],"tree_param":{"num_deleted":"0","num_feature":"57","num_nodes":"5","size_leaf_vector":"1"}},{"base_weights":[-9.555675E-3,-4.55646E-2,3.0010325E-1,4.976191E-2,-1.7677536E-2],"categories":[],"categories_nodes":[],"categories_segments":[],"categories_sizes":[],"default_left":[0,0,0,0,0],"id":43,"left_children":[1,-1,3,-1,-1],"loss_changes":[1.7313384E0,0E0,1.2192769E0,0E0,0E0],"parents":[2147483647,0,0,2,2],"right_children":[2,-1,4,-1,-1],"split_conditions":[7.129304E-2,-4.55646E-2,6.242922E-1,4.976191E-2,-1.7677536E-2],"split_indices":[25,0,9,0,0],"split_type":[0,0,0,0,0],"sum_hessian":[7.9984217E0,2.5491364E0,5.449285E0,3.2485688E0,2.2007165E0],"tree_param":{"num_deleted":"0","num_feature":"57","num_nodes":"5","size_leaf_vector":"1"}},{"base_weights":[2.672217E-2,2.8794205E-1,-3.7532955E-2,5.132728E-2,-2.2333749E-2],"categories":[],"categories_nodes":[],"categories_segments":[],"categories_sizes":[],"default_left":[0,0,0,0,0],"id":44,"left_children":[1,3,-1,-1,-1],"loss_changes":[1.2794831E0,1.4639244E0,0E0,0E0,0E0],"parents":[2147483647,0,0,1,1],"right_children":[2,4,-1,-1,-1],"split_conditions":[7.1822274E-1,2.0135605E-1,-3.7532955E-2,5.132728E-2,-2.2333749E-2],"split_indices":[9,13,0,0,0],"split_type":[0,0,0,0,0],"sum_hessian":[7.8346267E0,5.4061384E0,2.428488E0,3.2488487E0,2.15729E0],"tree_param":{"num_deleted":"0","num_feature":"57","num_nodes":"5","size_leaf_vector":"1"}},{"base_weights":[-2.8361045E-2,-3.5459198E-2,2.4771944E-1,4.8186667E-2,-9.424718E-3],"categories":[],"categories_nodes":[],"categories_segments":[],"categories_sizes":[],"default_left":[0,0,0,0,0],"id":45,"left_children":[1,-1,3,-1,-1],"loss_changes":[1.111327E0,0E0,8.3464754E-1,0E0,0E0],"parents":[2147483647,0,0,2,2],"right_children":[2,-1,4,-1,-1],"split_conditions":[-5.6097563E-2,-3.5459198E-2,-1.3745423E-1,4.8186667E-2,-9.424718E-3],"split_indices":[42,0,12,0,0],"split_type":[0,0,0,0,0],"sum_hessian":[7.743916E0,2.8522437E0,4.8916726E0,2.1540744E0,2.7375982E0],"tree_param":{"num_deleted":"0","num_feature":"57","num_nodes":"5","size_leaf_vector":"1"}},{"base_weights":[1.19147584E-1,-2.1516904E-2,4.3510833E-1,4.4879913E-2,1.3491995E-2],"categories":[],"categories_nodes":[],"categories_segments":[],"categories_sizes":[],"default_left":[0,0,0,0,0],"id":46,"left_children":[1,-1,3,-1,-1],"loss_changes":[1.1584036E0,0E0,7.523155E-2,0E0,0E0],"parents":[2147483647,0,0,2,2],"right_children":[2,-1,4,-1,-1],"split_conditions":[1.9006175E-1,-2.1516904E-2,-3.1542793E-2,4.4879913E-2,1.3491995E-2],"split_indices":[25,0,38,0,0],"split_type":[0,0,0,0,0],"sum_hessian":[7.492215E0,3.4289865E0,4.0632286E0,2.0087748E0,2.0544538E0],"tree_param":{"num_deleted":"0","num_feature":"57","num_nodes":"5","size_leaf_vector":"1"}},{"base_weights":[1.4467819E-2,-2.7096417E-2,2.855154E-1,4.5312904E-2,-9.812929E-3],"categories":[],"categories_nodes":[],"categories_segments":[],"categories_sizes":[],"default_left":[0,0,0,0,0],"id":47,"left_children":[1,-1,3,-1,-1],"loss_changes":[9.156807E-1,0E0,6.866741E-1,0E0,0E0],"parents":[2147483647,0,0,2,2],"right_children":[2,-1,4,-1,-1],"split_conditions":[5.861877E-2,-2.7096417E-2,2.8871018E-1,4.5312904E-2,-9.812929E-3],"split_indices":[32,0,20,0,0],"split_type":[0,0,0,0,0],"sum_hessian":[7.5553474E0,3.1722772E0,4.38307E0,2.3667076E0,2.0163627E0],"tree_param":{"num_deleted":"0","num_feature":"57","num_nodes":"5","size_leaf_vector":"1"}},{"base_weights":[1.740782E-2,3.295737E-1,-3.017287E-2,-1.5736112E-2,6.1142012E-2],"categories":[],"categories_nodes":[],"categories_segments":[],"categories_sizes":[],"default_left":[0,0,0,0,0],"id":48,"left_children":[1,3,-1,-1,-1],"loss_changes":[1.1670984E0,1.3537607E0,0E0,0E0,0E0],"parents":[2147483647,0,0,1,1],"right_children":[2,4,-1,-1,-1],"split_conditions":[1.7626981E-1,6.660821E-2,-3.017287E-2,-1.5736112E-2,6.1142012E-2],"split_indices":[1,46,0,0,0],"split_type":[0,0,0,0,0],"sum_hessian":[7.4662557E0,4.260363E0,3.2058926E0,2.1748567E0,2.0855064E0],"tree_param":{"num_deleted":"0","num_feature":"57","num_nodes":"5","size_leaf_vector":"1"}},{"base_weights":[-2.509675E-2,4.0738445E-2,-2.8654096E-1,-5.4280937E-2,1.772279E-2],"categories":[],"categories_nodes":[],"categories_segments":[],"categories_sizes":[],"default_left":[0,0,0,0,0],"id":49,"left_children":[1,-1,3,-1,-1],"loss_changes":[1.2777864E0,0E0,1.361212E0,0E0,0E0],"parents":[2147483647,0,0,2,2],"right_children":[2,-1,4,-1,-1],"split_conditions":[-7.5038177E-1,4.0738445E-2,5.1153964E-1,-5.4280937E-2,1.772279E-2],"split_indices":[0,0,19,0,0],"split_type":[0,0,0,0,0],"sum_hessian":[7.1023417E0,2.0220373E0,5.0803046E0,2.6784654E0,2.401839E0],"tree_param":{"num_deleted":"0","num_feature":"57","num_nodes":"5","size_leaf_vector":"1"}},{"base_weights":[-1.3444646E-2,-2.7958535E-2,2.6402764E-2],"categories":[],"categories_nodes":[],"categories_segments":[],"categories_sizes":[],"default_left":[0,0,0],"id":50,"left_children":[1,-1,-1],"loss_changes":[1.0723019E0,0E0,0E0],"parents":[2147483647,0,0],"right_children":[2,-1,-1],"split_conditions":[-2.2936976E-3,-2.7958535E-2,2.6402764E-2],"split_indices":[19,0,0],"split_type":[0,0,0],"sum_hessian":[7.290993E0,3.676589E0,3.6144042E0],"tree_param":{"num_deleted":"0","num_feature":"57","num_nodes":"3","size_leaf_vector":"1"}},{"base_weights":[1.5110435E-2,-3.10163E-2,2.8797993E-2],"categories":[],"categories_nodes":[],"categories_segments":[],"categories_sizes":[],"default_left":[0,0,0],"id":51,"left_children":[1,-1,-1],"loss_changes":[1.279133E0,0E0,0E0],"parents":[2147483647,0,0],"right_children":[2,-1,-1],"split_conditions":[2.214329E-1,-3.10163E-2,2.8797993E-2],"split_indices":[41,0,0],"split_type":[0,0,0],"sum_hessian":[7.20328E0,3.2651944E0,3.9380856E0],"tree_param":{"num_deleted":"0","num_feature":"57","num_nodes":"3","size_leaf_vector":"1"}},{"base_weights":[7.1679994E-2,3.410479E-1,-3.042873E-2,-1.3655459E-2,6.4453535E-2],"categories":[],"categories_nodes":[],"categories_segments":[],"categories_sizes":[],"default_left":[0,0,0,0,0],"id":52,"left_children":[1,3,-1,-1,-1],"loss_changes":[1.1726956E0,1.5390201E0,0E0,0E0,0E0],"parents":[2147483647,0,0,1,1],"right_children":[2,4,-1,-1,-1],"split_conditions":[7.1822274E-1,1.0394337E-1,-3.042873E-2,-1.3655459E-2,6.4453535E-2],"split_indices":[9,45,0,0,0],"split_type":[0,0,0,0,0],"sum_hessian":[7.565486E0,4.8944445E0,2.6710413E0,2.630162E0,2.2642825E0],"tree_param":{"num_deleted":"0","num_feature":"57","num_nodes":"5","size_leaf_vector":"1"}},{"base_weights":[4.2078607E-3,-2.4917854E-2,2.9678097E-1,5.172081E-2,-1.2834579E-2],"categories":[],"categories_nodes":[],"categories_segments":[],"categories_sizes":[],"default_left":[0,0,0,0,0],"id":53,"left_children":[1,-1,3,-1,-1],"loss_changes":[9.097949E-1,0E0,9.2001855E-1,0E0,0E0],"parents":[2147483647,0,0,2,2],"right_children":[2,-1,4,-1,-1],"split_conditions":[3.282332E-1,-2.4917854E-2,7.6439476E-1,5.172081E-2,-1.2834579E-2],"split_indices":[41,0,41,0,0],"split_type":[0,0,0,0,0],"sum_hessian":[7.849691E0,3.7446656E0,4.1050253E0,2.0913203E0,2.013705E0],"tree_param":{"num_deleted":"0","num_feature":"57","num_nodes":"5","size_leaf_vector":"1"}},{"base_weights":[2.613409E-2,3.2107225E-1,-4.175759E-2,-1.3900435E-2,5.6605563E-2],"categories":[],"categories_nodes":[],"categories_segments":[],"categories_sizes":[],"default_left":[0,0,0,0,0],"id":54,"left_children":[1,3,-1,-1,-1],"loss_changes":[1.4368856E0,1.2176554E0,0E0,0E0,0E0],"parents":[2147483647,0,0,1,1],"right_children":[2,4,-1,-1,-1],"split_conditions":[7.4858695E-1,-5.107229E-1,-4.175759E-2,-1.3900435E-2,5.6605563E-2],"split_indices":[4,2,0,0,0],"split_type":[0,0,0,0,0],"sum_hessian":[6.8517933E0,4.723995E0,2.127798E0,2.313055E0,2.4109402E0],"tree_param":{"num_deleted":"0","num_feature":"57","num_nodes":"5","size_leaf_vector":"1"}},{"base_weights":[-4.8403505E-2,-4.2709775E-2,2.77917E-2],"categories":[],"categories_nodes":[],"categories_segments":[],"categories_sizes":[],"default_left":[0,0,0],"id":55,"left_children":[1,-1,-1],"loss_changes":[1.6899706E0,0E0,0E0],"parents":[2147483647,0,0],"right_children":[2,-1,-1],"split_conditions":[1.9006175E-1,-4.2709775E-2,2.77917E-2],"split_indices":[25,0,0],"split_type":[0,0,0],"sum_hessian":[6.829915E0,2.9108117E0,3.9191036E0],"tree_param":{"num_deleted":"0","num_feature":"57","num_nodes":"3","size_leaf_vector":"1"}},{"base_weights":[6.486077E-2,3.5674092E-1,-2.5873946E-2,-1.1344696E-2,5.8276877E-2],"categories":[],"categories_nodes":[],"categories_segments":[],"categories_sizes":[],"default_left":[0,0,0,0,0],"id":56,"left_children":[1,3,-1,-1,-1],"loss_changes":[1.0328168E0,1.0478345E0,0E0,0E0,0E0],"parents":[2147483647,0,0,1,1],"right_children":[2,4,-1,-1,-1],"split_conditions":[1.7626981E-1,6.660821E-2,-2.5873946E-2,-1.1344696E-2,5.8276877E-2],"split_indices":[1,46,0,0,0],"split_type":[0,0,0,0,0],"sum_hessian":[7.095085E0,4.09674E0,2.9983451E0,2.0140328E0,2.082707E0],"tree_param":{"num_deleted":"0","num_feature":"57","num_nodes":"5","size_leaf_vector":"1"}},{"base_weights":[1.3225986E-2,-3.3577345E-2,2.515715E-1,5.4606047E-2,-1.3333245E-2],"categories":[],"categories_nodes":[],"categories_segments":[],"categories_sizes":[],"default_left":[0,0,0,0,0],"id":57,"left_children":[1,-1,3,-1,-1],"loss_changes":[9.35536E-1,0E0,1.1615266E0,0E0,0E0],"parents":[2147483647,0,0,2,2],"right_children":[2,-1,4,-1,-1],"split_conditions":[7.129304E-2,-3.3577345E-2,-4.987556E-2,5.4606047E-2,-1.3333245E-2],"split_indices":[25,0,16,0,0],"split_type":[0,0,0,0,0],"sum_hessian":[7.042906E0,2.2304482E0,4.8124576E0,2.0587904E0,2.753667E0],"tree_param":{"num_deleted":"0","num_feature":"57","num_nodes":"5","size_leaf_vector":"1"}},{"base_weights":[-2.644932E-2,-2.818306E-2,2.176298E-2],"categories":[],"categories_nodes":[],"categories_segments":[],"categories_sizes":[],"default_left":[0,0,0],"id":58,"left_children":[1,-1,-1],"loss_changes":[8.909416E-1,0E0,0E0],"parents":[2147483647,0,0],"right_children":[2,-1,-1],"split_conditions":[3.282332E-1,-2.818306E-2,2.176298E-2],"split_indices":[41,0,0],"split_type":[0,0,0],"sum_hessian":[7.1751785E0,3.3442376E0,3.830941E0],"tree_param":{"num_deleted":"0","num_feature":"57","num_nodes":"3","size_leaf_vector":"1"}},{"base_weights":[-1.5108264E-2,3.1313777E-1,-4.5037135E-2,-8.56061E-3,5.1604375E-2],"categories":[],"categories_nodes":[],"categories_segments":[],"categories_sizes":[],"default_left":[0,0,0,0,0],"id":59,"left_children":[1,3,-1,-1,-1],"loss_changes":[1.5239302E0,8.121426E-1,0E0,0E0,0E0],"parents":[2147483647,0,0,1,1],"right_children":[2,4,-1,-1,-1],"split_conditions":[7.1822274E-1,1.278265E-1,-4.5037135E-2,-8.56061E-3,5.1604375E-2],"split_indices":[9,41,0,0,0],"split_type":[0,0,0,0,0],"sum_hessian":[6.49393E0,4.328784E0,2.1651459E0,2.2095325E0,2.1192515E0],"tree_param":{"num_deleted":"0","num_feature":"57","num_nodes":"5","size_leaf_vector":"1"}},{"base_weights":[5.5672755E-3,-6.6327894E-1,1.3280469E-1,-1.19404405E-1,3.884868E-2],"categories":[],"categories_nodes":[],"categories_segments":[],"categories_sizes":[],"default_left":[0,0,0,0,0],"id":60,"left_children":[1,3,-1,-1,-1],"loss_changes":[1.3796675E1,9.189337E0,0E0,0E0,0E0],"parents":[2147483647,0,0,1,1],"right_children":[2,4,-1,-1,-1],"split_conditions":[-2.1824096E-1,-3.9393964E-1,1.3280469E-1,-1.19404405E-1,3.884868E-2],"split_indices":[29,35,0,0,0],"split_type":[0,0,0,0,0],"sum_hessian":[1.04726095E1,7.8843703E0,2.588239E0,4.405392E0,3.4789782E0],"tree_param":{"num_deleted":"0","num_feature":"57","num_nodes":"5","size_leaf_vector":"1"}},{"base_weights":[-5.845192E-2,-7.3456144E-1,1.2829368E-1,-1.2230059E-1,2.6659913E-2],"categories":[],"categories_nodes":[],"categories_segments":[],"categories_sizes":[],"default_left":[0,0,0,0,0],"id":61,"left_children":[1,3,-1,-1,-1],"loss_changes":[1.2718857E1,7.2820106E0,0E0,0E0,0E0],"parents":[2147483647,0,0,1,1],"right_children":[2,4,-1,-1,-1],"split_conditions":[-2.1824096E-1,-3.9393964E-1,1.2829368E-1,-1.2230059E-1,2.6659913E-2],"split_indices":[29,35,0,0,0],"split_type":[0,0,0,0,0],"sum_hessian":[9.269707E0,6.9860263E0,2.2836802E0,3.7587438E0,3.2272828E0],"tree_param":{"num_deleted":"0","num_feature":"57","num_nodes":"5","size_leaf_vector":"1"}},{"base_weights":[1.7712125E-1,1.1070666E-1,-5.4827726E-1,2.2230169E-2,-1.0124764E-1],"categories":[],"categories_nodes":[],"categories_segments":[],"categories_sizes":[],"default_left":[0,0,0,0,0],"id":62,"left_children":[1,-1,3,-1,-1],"loss_changes":[1.0107265E1,0E0,4.72896E0,0E0,0E0],"parents":[2147483647,0,0,2,2],"right_children":[2,-1,4,-1,-1],"split_conditions":[-3.3655712E-1,1.1070666E-1,-9.338005E-3,2.2230169E-2,-1.0124764E-1],"split_indices":[33,0,1,0,0],"split_type":[0,0,0,0,0],"sum_hessian":[9.67981E0,3.2934372E0,6.3863726E0,3.252732E0,3.1336405E0],"tree_param":{"num_deleted":"0","num_feature":"57","num_nodes":"5","size_leaf_vector":"1"}},{"base_weights":[1.4828093E-1,1.0251623E-1,-5.401376E-1,1.2198159E-1,-1.132159E-1,6.307763E-2,-4.7661915E-2],"categories":[],"categories_nodes":[],"categories_segments":[],"categories_sizes":[],"default_left":[0,0,0,0,0,0,0],"id":63,"left_children":[1,-1,3,5,-1,-1,-1],"loss_changes":[9.058137E0,0E0,4.445563E0,2.9184933E0,0E0,0E0,0E0],"parents":[2147483647,0,0,2,2,3,3],"right_children":[2,-1,4,6,-1,-1,-1],"split_conditions":[-3.3655712E-1,1.0251623E-1,4.4021186E-1,-2.1647762E-1,-1.132159E-1,6.307763E-2,-4.7661915E-2],"split_indices":[33,0,1,40,0,0,0],"split_type":[0,0,0,0,0,0,0],"sum_hessian":[9.724284E0,3.349459E0,6.374825E0,4.118867E0,2.2559578E0,2.084621E0,2.034246E0],"tree_param":{"num_deleted":"0","num_feature":"57","num_nodes":"7","size_leaf_vector":"1"}},{"base_weights":[1.8524751E-1,-8.1996135E-2,6.972036E-1,1.1337042E-1,-2.0381998E-2],"categories":[],"categories_nodes":[],"categories_segments":[],"categories_sizes":[],"default_left":[0,0,0,0,0],"id":64,"left_children":[1,-1,3,-1,-1],"loss_changes":[7.4243164E0,0E0,5.984666E0,0E0,0E0],"parents":[2147483647,0,0,2,2],"right_children":[2,-1,4,-1,-1],"split_conditions":[-3.5649592E-1,-8.1996135E-2,4.4021186E-1,1.1337042E-1,-2.0381998E-2],"split_indices":[34,0,1,0,0],"split_type":[0,0,0,0,0],"sum_hessian":[9.829655E0,2.624244E0,7.2054105E0,3.8245258E0,3.3808844E0],"tree_param":{"num_deleted":"0","num_feature":"57","num_nodes":"5","size_leaf_vector":"1"}},{"base_weights":[-1.2289819E-1,-7.151976E-1,1.0323397E-1,-1.18301235E-1,1.5451872E-2],"categories":[],"categories_nodes":[],"categories_segments":[],"categories_sizes":[],"default_left":[0,0,0,0,0],"id":65,"left_children":[1,3,-1,-1,-1],"loss_changes":[9.620501E0,5.810049E0,0E0,0E0,0E0],"parents":[2147483647,0,0,1,1],"right_children":[2,4,-1,-1,-1],"split_conditions":[-2.1824096E-1,-4.8453552E-1,1.0323397E-1,-1.18301235E-1,1.5451872E-2],"split_indices":[29,10,0,0,0],"split_type":[0,0,0,0,0],"sum_hessian":[9.390019E0,6.9650474E0,2.424972E0,3.442913E0,3.5221343E0],"tree_param":{"num_deleted":"0","num_feature":"57","num_nodes":"5","size_leaf_vector":"1"}},{"base_weights":[5.358583E-2,-4.890545E-1,9.8934375E-2,-8.816907E-2,5.4785203E-2],"categories":[],"categories_nodes":[],"categories_segments":[],"categories_sizes":[],"default_left":[0,0,0,0,0],"id":66,"left_children":[1,3,-1,-1,-1],"loss_changes":[7.542339E0,6.6018534E0,0E0,0E0,0E0],"parents":[2147483647,0,0,1,1],"right_children":[2,4,-1,-1,-1],"split_conditions":[-2.1824096E-1,-2.261756E-1,9.8934375E-2,-8.816907E-2,5.4785203E-2],"split_indices":[29,34,0,0,0],"split_type":[0,0,0,0,0],"sum_hessian":[9.806223E0,7.124922E0,2.6813009E0,4.720662E0,2.4042602E0],"tree_param":{"num_deleted":"0","num_feature":"57","num_nodes":"5","size_leaf_vector":"1"}},{"base_weights":[6.9109365E-2,-4.4791976E-1,9.043678E-2,-1.1098088E-1,3.7958555E-2],"categories":[],"categories_nodes":[],"categories_segments":[],"categories_sizes":[],"default_left":[0,0,0,0,0],"id":67,"left_children":[1,3,-1,-1,-1],"loss_changes":[6.5200477E0,7.6637564E0,0E0,0E0,0E0],"parents":[2147483647,0,0,1,1],"right_children":[2,4,-1,-1,-1],"split_conditions":[6.636436E-1,-2.2762129E-1,9.043678E-2,-1.1098088E-1,3.7958555E-2],"split_indices":[25,8,0,0,0],"split_type":[0,0,0,0,0],"sum_hessian":[9.958912E0,7.085321E0,2.8735907E0,3.2607362E0,3.8245847E0],"tree_param":{"num_deleted":"0","num_feature":"57","num_nodes":"5","size_leaf_vector":"1"}},{"base_weights":[-2.4000023E-2,7.901668E-2,-6.0497814E-1,8.806772E-3,-1.0771593E-1],"categories":[],"categories_nodes":[],"categories_segments":[],"categories_sizes":[],"default_left":[0,0,0,0,0],"id":68,"left_children":[1,-1,3,-1,-1],"loss_changes":[6.6928077E0,0E0,3.9695642E0,0E0,0E0],"parents":[2147483647,0,0,2,2],"right_children":[2,-1,4,-1,-1],"split_conditions":[-3.3655712E-1,7.901668E-2,5.1715646E-2,8.806772E-3,-1.0771593E-1],"split_indices":[33,0,7,0,0],"split_type":[0,0,0,0,0],"sum_hessian":[9.369971E0,3.1625917E0,6.207379E0,3.5934477E0,2.6139314E0],"tree_param":{"num_deleted":"0","num_feature":"57","num_nodes":"5","size_leaf_vector":"1"}},{"base_weights":[1.8269869E-2,-8.219029E-2,6.21055E-1,1.2746642E0,-6.020048E-2,1.0107315E-2,1.5607822E-1],"categories":[],"categories_nodes":[],"categories_segments":[],"categories_sizes":[],"default_left":[0,0,0,0,0,0,0],"id":69,"left_children":[1,-1,3,5,-1,-1,-1],"loss_changes":[7.3791785E0,0E0,7.609381E0,3.939766E0,0E0,0E0,0E0],"parents":[2147483647,0,0,2,2,3,3],"right_children":[2,-1,4,6,-1,-1,-1],"split_conditions":[-7.422721E-1,-8.219029E-2,4.7250894E-1,-9.376585E-2,-6.020048E-2,1.0107315E-2,1.5607822E-1],"split_indices":[8,0,1,6,0,0,0],"split_type":[0,0,0,0,0,0,0],"sum_hessian":[9.695074E0,3.287638E0,6.407436E0,4.390308E0,2.017128E0,2.0671957E0,2.3231122E0],"tree_param":{"num_deleted":"0","num_feature":"57","num_nodes":"7","size_leaf_vector":"1"}},{"base_weights":[-9.12347E-2,-6.129675E-1,8.1178844E-2,-1.1641032E-1,1.9113477E-2],"categories":[],"categories_nodes":[],"categories_segments":[],"categories_sizes":[],"default_left":[0,0,0,0,0],"id":70,"left_children":[1,3,-1,-1,-1],"loss_changes":[6.563934E0,5.8146544E0,0E0,0E0,0E0],"parents":[2147483647,0,0,1,1],"right_children":[2,4,-1,-1,-1],"split_conditions":[6.636436E-1,-2.2762129E-1,8.1178844E-2,-1.1641032E-1,1.9113477E-2],"split_indices":[25,8,0,0,0],"split_type":[0,0,0,0,0],"sum_hessian":[9.297606E0,6.620298E0,2.6773086E0,2.9730546E0,3.6472433E0],"tree_param":{"num_deleted":"0","num_feature":"57","num_nodes":"5","size_leaf_vector":"1"}},{"base_weights":[-4.8960436E-2,-5.174753E-1,7.3782854E-2,-1.1217385E-1,2.9326575E-2],"categories":[],"categories_nodes":[],"categories_segments":[],"categories_sizes":[],"default_left":[0,0,0,0,0],"id":71,"left_children":[1,3,-1,-1,-1],"loss_changes":[5.0728836E0,6.3435407E0,0E0,0E0,0E0],"parents":[2147483647,0,0,1,1],"right_children":[2,4,-1,-1,-1],"split_conditions":[6.636436E-1,-2.2762129E-1,7.3782854E-2,-1.1217385E-1,2.9326575E-2],"split_indices":[25,8,0,0,0],"split_type":[0,0,0,0,0],"sum_hessian":[9.099312E0,6.453461E0,2.6458502E0,2.9326358E0,3.5208256E0],"tree_param":{"num_deleted":"0","num_feature":"57","num_nodes":"5","size_leaf_vector":"1"}},{"base_weights":[7.6094246E-3,-5.2935743E-1,8.851523E-2,4.002321E-2,-9.5107116E-2],"categories":[],"categories_nodes":[],"categories_segments":[],"categories_sizes":[],"default_left":[0,0,0,0,0],"id":72,"left_children":[1,3,-1,-1,-1],"loss_changes":[6.293101E0,5.466227E0,0E0,0E0,0E0],"parents":[2147483647,0,0,1,1],"right_children":[2,4,-1,-1,-1],"split_conditions":[-2.1824096E-1,9.8990835E-3,8.851523E-2,4.002321E-2,-9.5107116E-2],"split_indices":[29,41,0,0,0],"split_type":[0,0,0,0,0],"sum_hessian":[8.672969E0,6.174113E0,2.498856E0,2.5047846E0,3.6693285E0],"tree_param":{"num_deleted":"0","num_feature":"57","num_nodes":"5","size_leaf_vector":"1"}},{"base_weights":[2.8237002E-2,-9.394826E-2,6.0144824E-1,9.998789E-2,2.4111896E-5],"categories":[],"categories_nodes":[],"categories_segments":[],"categories_sizes":[],"default_left":[0,0,0,0,0],"id":73,"left_children":[1,-1,3,-1,-1],"loss_changes":[7.628131E0,0E0,2.9079344E0,0E0,0E0],"parents":[2147483647,0,0,2,2],"right_children":[2,-1,4,-1,-1],"split_conditions":[-3.9984855E-1,-9.394826E-2,-3.3655712E-1,9.998789E-2,2.4111896E-5],"split_indices":[39,0,33,0,0],"split_type":[0,0,0,0,0],"sum_hessian":[9.041251E0,2.5799081E0,6.461343E0,2.589349E0,3.8719935E0],"tree_param":{"num_deleted":"0","num_feature":"57","num_nodes":"5","size_leaf_vector":"1"}},{"base_weights":[2.8147187E-2,-8.03457E-2,4.68801E-1,9.6668226E-1,-3.760975E-2,9.62665E-3,1.16015606E-1],"categories":[],"categories_nodes":[],"categories_segments":[],"categories_sizes":[],"default_left":[0,0,0,0,0,0,0],"id":74,"left_children":[1,-1,3,5,-1,-1,-1],"loss_changes":[5.112504E0,0E0,4.1158404E0,2.0538845E0,0E0,0E0,0E0],"parents":[2147483647,0,0,2,2,3,3],"right_children":[2,-1,4,6,-1,-1,-1],"split_conditions":[-3.9984855E-1,-8.03457E-2,5.9821844E-1,-1.8165672E-1,-3.760975E-2,9.62665E-3,1.16015606E-1],"split_indices":[39,0,19,6,0,0,0],"split_type":[0,0,0,0,0,0,0],"sum_hessian":[9.202359E0,2.3700597E0,6.8323E0,4.4454517E0,2.3868482E0,2.0703495E0,2.3751023E0],"tree_param":{"num_deleted":"0","num_feature":"57","num_nodes":"7","size_leaf_vector":"1"}},{"base_weights":[3.9541973E-3,-4.172908E-1,8.66072E-2,5.0974064E-2,-8.425722E-2],"categories":[],"categories_nodes":[],"categories_segments":[],"categories_sizes":[],"default_left":[0,0,0,0,0],"id":75,"left_children":[1,3,-1,-1,-1],"loss_changes":[5.0377197E0,6.0222645E0,0E0,0E0,0E0],"parents":[2147483647,0,0,1,1],"right_children":[2,4,-1,-1,-1],"split_conditions":[-2.1824096E-1,-3.3685204E-1,8.66072E-2,5.0974064E-2,-8.425722E-2],"split_indices":[29,33,0,0,0],"split_type":[0,0,0,0,0],"sum_hessian":[9.093019E0,6.980155E0,2.1128633E0,2.6251912E0,4.354964E0],"tree_param":{"num_deleted":"0","num_feature":"57","num_nodes":"5","size_leaf_vector":"1"}},{"base_weights":[-7.1747326E-3,6.346196E-2,-5.2845156E-1,2.6293665E-2,-9.1584355E-2],"categories":[],"categories_nodes":[],"categories_segments":[],"categories_sizes":[],"default_left":[0,0,0,0,0],"id":76,"left_children":[1,-1,3,-1,-1],"loss_changes":[4.526152E0,0E0,3.8423963E0,0E0,0E0],"parents":[2147483647,0,0,2,2],"right_children":[2,-1,4,-1,-1],"split_conditions":[-3.3655712E-1,6.346196E-2,-3.0310008E-1,2.6293665E-2,-9.1584355E-2],"split_indices":[33,0,2,0,0],"split_type":[0,0,0,0,0],"sum_hessian":[8.842755E0,3.2817128E0,5.5610423E0,2.5214176E0,3.0396245E0],"tree_param":{"num_deleted":"0","num_feature":"57","num_nodes":"5","size_leaf_vector":"1"}},{"base_weights":[4.4468313E-2,-6.514387E-2,5.139141E-1,8.1354074E-2,-2.9988421E-2],"categories":[],"categories_nodes":[],"categories_segments":[],"categories_sizes":[],"default_left":[0,0,0,0,0],"id":77,"left_children":[1,-1,3,-1,-1],"loss_changes":[4.4145026E0,0E0,3.5203998E0,0E0,0E0],"parents":[2147483647,0,0,2,2],"right_children":[2,-1,4,-1,-1],"split_conditions":[-7.422721E-1,-6.514387E-2,5.9821844E-1,8.1354074E-2,-2.9988421E-2],"split_indices":[8,0,19,0,0],"split_type":[0,0,0,0,0],"sum_hessian":[8.912138E0,2.8902853E0,6.0218525E0,3.7533786E0,2.268474E0],"tree_param":{"num_deleted":"0","num_feature":"57","num_nodes":"5","size_leaf_vector":"1"}},{"base_weights":[3.6220804E-2,-4.815561E-1,6.557616E-2,2.0405628E-2,-1.1315102E-1],"categories":[],"categories_nodes":[],"categories_segments":[],"categories_sizes":[],"default_left":[0,0,0,0,0],"id":78,"left_children":[1,3,-1,-1,-1],"loss_changes":[4.4270496E0,4.90606E0,0E0,0E0,0E0],"parents":[2147483647,0,0,1,1],"right_children":[2,4,-1,-1,-1],"split_conditions":[-1.4458865E-1,2.3620771E-2,6.557616E-2,2.0405628E-2,-1.1315102E-1],"split_indices":[13,23,0,0,0],"split_type":[0,0,0,0,0],"sum_hessian":[8.939932E0,5.614715E0,3.3252165E0,3.5432725E0,2.0714424E0],"tree_param":{"num_deleted":"0","num_feature":"57","num_nodes":"5","size_leaf_vector":"1"}},{"base_weights":[1.1598609E-2,-5.2238554E-1,6.0699694E-2,-9.56612E-2,3.077768E-2],"categories":[],"categories_nodes":[],"categories_segments":[],"categories_sizes":[],"default_left":[0,0,0,0,0],"id":79,"left_children":[1,3,-1,-1,-1],"loss_changes":[4.0247574E0,4.0615435E0,0E0,0E0,0E0],"parents":[2147483647,0,0,1,1],"right_children":[2,4,-1,-1,-1],"split_conditions":[-3.6075276E-1,-4.8453552E-1,6.0699694E-2,-9.56612E-2,3.077768E-2],"split_indices":[29,10,0,0,0],"split_type":[0,0,0,0,0],"sum_hessian":[8.094531E0,4.896117E0,3.1984136E0,2.627446E0,2.2686713E0],"tree_param":{"num_deleted":"0","num_feature":"57","num_nodes":"5","size_leaf_vector":"1"}},{"base_weights":[1.0708218E-1,7.2480775E-2,-3.914547E-1,3.9825983E-2,-8.203285E-2],"categories":[],"categories_nodes":[],"categories_segments":[],"categories_sizes":[],"default_left":[0,0,0,0,0],"id":80,"left_children":[1,-1,3,-1,-1],"loss_changes":[4.0014005E0,0E0,4.082552E0,0E0,0E0],"parents":[2147483647,0,0,2,2],"right_children":[2,-1,4,-1,-1],"split_conditions":[-6.3320106E-1,7.2480775E-2,-5.664461E-1,3.9825983E-2,-8.203285E-2],"split_indices":[12,0,14,0,0],"split_type":[0,0,0,0,0],"sum_hessian":[8.155877E0,2.8197556E0,5.336121E0,2.3102121E0,3.0259092E0],"tree_param":{"num_deleted":"0","num_feature":"57","num_nodes":"5","size_leaf_vector":"1"}},{"base_weights":[1.05407886E-1,-3.2793096E-1,7.398891E-2,-9.5759206E-2,3.4438618E-2],"categories":[],"categories_nodes":[],"categories_segments":[],"categories_sizes":[],"default_left":[0,0,0,0,0],"id":81,"left_children":[1,3,-1,-1,-1],"loss_changes":[3.7384243E0,5.172404E0,0E0,0E0,0E0],"parents":[2147483647,0,0,1,1],"right_children":[2,4,-1,-1,-1],"split_conditions":[6.636436E-1,-2.2762129E-1,7.398891E-2,-9.5759206E-2,3.4438618E-2],"split_indices":[25,8,0,0,0],"split_type":[0,0,0,0,0],"sum_hessian":[8.67368E0,6.06581E0,2.6078706E0,2.557227E0,3.5085833E0],"tree_param":{"num_deleted":"0","num_feature":"57","num_nodes":"5","size_leaf_vector":"1"}},{"base_weights":[-5.0618052E-3,-8.079199E-2,4.6873382E-1,2.612375E-3,8.03773E-2],"categories":[],"categories_nodes":[],"categories_segments":[],"categories_sizes":[],"default_left":[0,0,0,0,0],"id":82,"left_children":[1,-1,3,-1,-1],"loss_changes":[4.778537E0,0E0,1.5631568E0,0E0,0E0],"parents":[2147483647,0,0,2,2],"right_children":[2,-1,4,-1,-1],"split_conditions":[-3.9984855E-1,-8.079199E-2,2.4034575E-1,2.612375E-3,8.03773E-2],"split_indices":[39,0,26,0,0],"split_type":[0,0,0,0,0],"sum_hessian":[8.04279E0,2.2145677E0,5.8282223E0,3.7985885E0,2.0296338E0],"tree_param":{"num_deleted":"0","num_feature":"57","num_nodes":"5","size_leaf_vector":"1"}},{"base_weights":[2.5206808E-2,-3.6632726E-1,5.7336133E-2,-9.153111E-2,3.088093E-2],"categories":[],"categories_nodes":[],"categories_segments":[],"categories_sizes":[],"default_left":[0,0,0,0,0],"id":83,"left_children":[1,3,-1,-1,-1],"loss_changes":[2.856451E0,4.408478E0,0E0,0E0,0E0],"parents":[2147483647,0,0,1,1],"right_children":[2,4,-1,-1,-1],"split_conditions":[6.636436E-1,-2.2762129E-1,5.7336133E-2,-9.153111E-2,3.088093E-2],"split_indices":[25,8,0,0,0],"split_type":[0,0,0,0,0],"sum_hessian":[8.580658E0,5.7788377E0,2.8018203E0,2.5852647E0,3.193573E0],"tree_param":{"num_deleted":"0","num_feature":"57","num_nodes":"5","size_leaf_vector":"1"}},{"base_weights":[-1.8543407E-3,4.0533695E-1,-5.3964064E-2,-1.2910806E-2,8.8400304E-2],"categories":[],"categories_nodes":[],"categories_segments":[],"categories_sizes":[],"default_left":[0,0,0,0,0],"id":84,"left_children":[1,3,-1,-1,-1],"loss_changes":[2.9564726E0,2.845447E0,0E0,0E0,0E0],"parents":[2147483647,0,0,1,1],"right_children":[2,4,-1,-1,-1],"split_conditions":[2.0584221E-1,-3.2376054E-1,-5.3964064E-2,-1.2910806E-2,8.8400304E-2],"split_indices":[41,34,0,0,0],"split_type":[0,0,0,0,0],"sum_hessian":[8.795159E0,5.7263656E0,3.0687938E0,3.588811E0,2.1375546E0],"tree_param":{"num_deleted":"0","num_feature":"57","num_nodes":"5","size_leaf_vector":"1"}},{"base_weights":[-1.3899398E-2,-4.707059E-1,4.986016E-2,1.8995967E-2,-8.1043035E-2],"categories":[],"categories_nodes":[],"categories_segments":[],"categories_sizes":[],"default_left":[0,0,0,0,0],"id":85,"left_children":[1,3,-1,-1,-1],"loss_changes":[3.0851364E0,2.6049085E0,0E0,0E0,0E0],"parents":[2147483647,0,0,1,1],"right_children":[2,4,-1,-1,-1],"split_conditions":[-1.4458865E-1,2.2105114E-1,4.986016E-2,1.8995967E-2,-8.1043035E-2],"split_indices":[13,15,0,0,0],"split_type":[0,0,0,0,0],"sum_hessian":[8.591894E0,5.156307E0,3.4355867E0,2.480083E0,2.6762242E0],"tree_param":{"num_deleted":"0","num_feature":"57","num_nodes":"5","size_leaf_vector":"1"}},{"base_weights":[-8.4168855E-3,-4.9817306E-1,5.7093248E-2,-8.5352056E-2,1.6636577E-2],"categories":[],"categories_nodes":[],"categories_segments":[],"categories_sizes":[],"default_left":[0,0,0,0,0],"id":86,"left_children":[1,3,-1,-1,-1],"loss_changes":[3.3920112E0,2.5130115E0,0E0,0E0,0E0],"parents":[2147483647,0,0,1,1],"right_children":[2,4,-1,-1,-1],"split_conditions":[-3.6075276E-1,-4.8453552E-1,5.7093248E-2,-8.5352056E-2,1.6636577E-2],"split_indices":[29,10,0,0,0],"split_type":[0,0,0,0,0],"sum_hessian":[7.586259E0,4.7050934E0,2.8811655E0,2.3231127E0,2.381981E0],"tree_param":{"num_deleted":"0","num_feature":"57","num_nodes":"5","size_leaf_vector":"1"}},{"base_weights":[-8.608927E-2,3.3630309E-1,-7.532613E-2,-4.808631E-2,1.0112156E-1],"categories":[],"categories_nodes":[],"categories_segments":[],"categories_sizes":[],"default_left":[0,0,0,0,0],"id":87,"left_children":[1,3,-1,-1,-1],"loss_changes":[3.7342358E0,6.906645E0,0E0,0E0,0E0],"parents":[2147483647,0,0,1,1],"right_children":[2,4,-1,-1,-1],"split_conditions":[5.879111E-1,-4.126903E-1,-7.532613E-2,-4.808631E-2,1.0112156E-1],"split_indices":[23,10,0,0,0],"split_type":[0,0,0,0,0],"sum_hessian":[8.457778E0,6.0684166E0,2.3893616E0,3.1936154E0,2.8748014E0],"tree_param":{"num_deleted":"0","num_feature":"57","num_nodes":"5","size_leaf_vector":"1"}},{"base_weights":[-5.582208E-2,-4.1126925E-1,5.9518874E-2,8.859533E-3,-8.3780184E-2],"categories":[],"categories_nodes":[],"categories_segments":[],"categories_sizes":[],"default_left":[0,0,0,0,0],"id":88,"left_children":[1,3,-1,-1,-1],"loss_changes":[2.9199007E0,2.443108E0,0E0,0E0,0E0],"parents":[2147483647,0,0,1,1],"right_children":[2,4,-1,-1,-1],"split_conditions":[-2.1824096E-1,5.879111E-1,5.9518874E-2,8.859533E-3,-8.3780184E-2],"split_indices":[29,23,0,0,0],"split_type":[0,0,0,0,0],"sum_hessian":[8.194578E0,6.009606E0,2.1849725E0,3.75411E0,2.2554955E0],"tree_param":{"num_deleted":"0","num_feature":"57","num_nodes":"5","size_leaf_vector":"1"}},{"base_weights":[6.2481567E-2,-5.0321028E-2,5.7313334E-2],"categories":[],"categories_nodes":[],"categories_segments":[],"categories_sizes":[],"default_left":[0,0,0],"id":89,"left_children":[1,-1,-1],"loss_changes":[4.3474817E0,0E0,0E0],"parents":[2147483647,0,0],"right_children":[2,-1,-1],"split_conditions":[-3.9393964E-1,-5.0321028E-2,5.7313334E-2],"split_indices":[35,0,0],"split_type":[0,0,0],"sum_hessian":[7.6176705E0,3.7210305E0,3.8966398E0],"tree_param":{"num_deleted":"0","num_feature":"57","num_nodes":"3","size_leaf_vector":"1"}},{"base_weights":[2.3983546E-1,-5.6691843E-1,1.5932511E-1,2.4460152E-1,-1.3498209E0,-4.830741E-2,7.851109E-2,-2.1510405E-2,-1.5942213E-1],"categories":[],"categories_nodes":[],"categories_segments":[],"categories_sizes":[],"default_left":[0,0,0,0,0,0,0,0,0],"id":90,"left_children":[1,3,-1,5,7,-1,-1,-1,-1],"loss_changes":[2.0942833E1,6.923615E0,0E0,4.307309E0,3.2418041E0,0E0,0E0,0E0,0E0],"parents":[2147483647,0,0,1,1,3,3,4,4],"right_children":[2,4,-1,6,8,-1,-1,-1,-1],"split_conditions":[1.1501287E0,2.4803346E-2,1.5932511E-1,-6.91712E-1,5.5166252E-2,-4.830741E-2,7.851109E-2,-2.1510405E-2,-1.5942213E-1],"split_indices":[46,41,0,41,40,0,0,0,0],"split_type":[0,0,0,0,0,0,0,0,0],"sum_hessian":[1.302037E1,9.37781E0,3.6425593E0,4.942361E0,4.435449E0,2.3809853E0,2.5613756E0,2.183213E0,2.252236E0],"tree_param":{"num_deleted":"0","num_feature":"57","num_nodes":"9","size_leaf_vector":"1"}},{"base_weights":[5.9357513E-2,-5.203632E-1,1.6587462E-1,2.492438E-1,-1.1300819E0,-3.7161563E-2,6.373126E-2,-1.60443E-2,-1.6264705E-1],"categories":[],"categories_nodes":[],"categories_segments":[],"categories_sizes":[],"default_left":[0,0,0,0,0,0,0,0,0],"id":91,"left_children":[1,3,-1,5,7,-1,-1,-1,-1],"loss_changes":[1.7573935E1,5.8042693E0,0E0,2.722825E0,5.255824E0,0E0,0E0,0E0,0E0],"parents":[2147483647,0,0,1,1,3,3,4,4],"right_children":[2,4,-1,6,8,-1,-1,-1,-1],"split_conditions":[5.2200913E-1,1.0687184E-1,1.6587462E-1,-5.0162494E-1,-7.852698E-2,-3.7161563E-2,6.373126E-2,-1.60443E-2,-1.6264705E-1],"split_indices":[1,40,0,32,41,0,0,0,0],"split_type":[0,0,0,0,0,0,0,0,0],"sum_hessian":[1.3127253E1,1.0769154E1,2.3580995E0,5.0217505E0,5.747403E0,2.2453675E0,2.7763827E0,3.4343154E0,2.3130877E0],"tree_param":{"num_deleted":"0","num_feature":"57","num_nodes":"9","size_leaf_vector":"1"}},{"base_weights":[6.597034E-3,-5.957533E-1,1.2110351E-1,-8.766621E-2,-1.1645766E-1,4.850116E-2,-5.9547924E-2],"categories":[],"categories_nodes":[],"categories_segments":[],"categories_sizes":[],"default_left":[0,0,0,0,0,0,0],"id":92,"left_children":[1,3,-1,5,-1,-1,-1],"loss_changes":[1.3604365E1,4.553815E0,0E0,4.0052505E0,0E0,0E0,0E0],"parents":[2147483647,0,0,1,1,3,3],"right_children":[2,4,-1,6,-1,-1,-1],"split_conditions":[1.2846595E0,2.591894E-1,1.2110351E-1,-1.3559012E-1,-1.1645766E-1,4.850116E-2,-5.9547924E-2],"split_indices":[46,3,0,31,0,0,0],"split_type":[0,0,0,0,0,0,0],"sum_hessian":[1.2991705E1,9.71417E0,3.277535E0,6.7990737E0,2.9150963E0,3.3431127E0,3.455961E0],"tree_param":{"num_deleted":"0","num_feature":"57","num_nodes":"7","size_leaf_vector":"1"}},{"base_weights":[7.890608E-2,-1.0737454E0,8.616526E-1,-2.7161531E-2,-1.2220799E-1,1.8609852E-1,1.5538815E-1,-4.380683E-2,7.3824435E-2],"categories":[],"categories_nodes":[],"categories_segments":[],"categories_sizes":[],"default_left":[0,0,0,0,0,0,0,0,0],"id":93,"left_children":[1,3,5,-1,-1,7,-1,-1,-1],"loss_changes":[1.3975999E1,1.5791736E0,6.332993E0,0E0,0E0,4.152904E0,0E0,0E0,0E0],"parents":[2147483647,0,0,1,1,2,2,5,5],"right_children":[2,4,6,-1,-1,8,-1,-1,-1],"split_conditions":[-4.0718053E-2,-3.2169502E-3,8.492879E-1,-2.7161531E-2,-1.2220799E-1,-5.0515406E-2,1.5538815E-1,-4.380683E-2,7.3824435E-2],"split_indices":[1,33,22,0,0,28,0,0,0],"split_type":[0,0,0,0,0,0,0,0,0],"sum_hessian":[1.3464988E1,5.2953835E0,8.169604E0,2.6906486E0,2.604735E0,5.748421E0,2.4211836E0,3.00874E0,2.7396812E0],"tree_param":{"num_deleted":"0","num_feature":"57","num_nodes":"9","size_leaf_vector":"1"}},{"base_weights":[-1.5317933E-2,3.2834768E-1,-9.230138E-2,7.842002E-1,-4.6029605E-2,1.21328294E-1,-1.8664517E-2],"categories":[],"categories_nodes":[],"categories_segments":[],"categories_sizes":[],"default_left":[0,0,0,0,0,0,0],"id":94,"left_children":[1,3,-1,5,-1,-1,-1],"loss_changes":[6.011236E0,5.327365E0,0E0,6.532478E0,0E0,0E0,0E0],"parents":[2147483647,0,0,1,1,3,3],"right_children":[2,4,-1,6,-1,-1,-1],"split_conditions":[3.3397782E-1,-2.5964245E-1,-9.230138E-2,2.7223516E-1,-4.6029605E-2,1.21328294E-1,-1.8664517E-2],"split_indices":[3,35,0,8,0,0,0],"split_type":[0,0,0,0,0,0,0],"sum_hessian":[1.3396058E1,1.0836431E1,2.5596278E0,7.2909746E0,3.5454557E0,3.9542134E0,3.3367612E0],"tree_param":{"num_deleted":"0","num_feature":"57","num_nodes":"7","size_leaf_vector":"1"}},{"base_weights":[1.9280802E-1,-5.8584344E-1,1.1693089E0,3.404924E-2,-1.03331E0,1.8838866E-2,1.3780777E-1,-1.2872958E-1,5.018735E-3],"categories":[],"categories_nodes":[],"categories_segments":[],"categories_sizes":[],"default_left":[0,0,0,0,0,0,0,0,0],"id":95,"left_children":[1,3,5,-1,7,-1,-1,-1,-1],"loss_changes":[1.1550809E1,4.3397374E0,3.0424004E0,0E0,4.0553246E0,0E0,0E0,0E0,0E0],"parents":[2147483647,0,0,1,1,2,2,4,4],"right_children":[2,4,6,-1,8,-1,-1,-1,-1],"split_conditions":[-5.8304477E-2,-1.7143868E-1,-4.0201247E-1,3.404924E-2,5.565722E-2,1.8838866E-2,1.3780777E-1,-1.2872958E-1,5.018735E-3],"split_indices":[46,40,14,0,1,0,0,0,0],"split_type":[0,0,0,0,0,0,0,0,0],"sum_hessian":[1.329042E1,7.6168685E0,5.6735516E0,2.3511448E0,5.265723E0,2.6412842E0,3.0322673E0,3.145245E0,2.1204784E0],"tree_param":{"num_deleted":"0","num_feature":"57","num_nodes":"9","size_leaf_vector":"1"}},{"base_weights":[1.8623434E-1,-2.6690403E-1,1.2054642E-1,1.2856112E-1,-8.3919846E-2,7.4245775E-1,-7.202034E-2,1.0698221E-1,6.115462E-3],"categories":[],"categories_nodes":[],"categories_segments":[],"categories_sizes":[],"default_left":[0,0,0,0,0,0,0,0,0],"id":96,"left_children":[1,3,-1,5,-1,7,-1,-1,-1],"loss_changes":[9.490935E0,3.8950658E0,0E0,6.3308344E0,0E0,2.339295E0,0E0,0E0,0E0],"parents":[2147483647,0,0,1,1,3,3,5,5],"right_children":[2,4,-1,6,-1,8,-1,-1,-1],"split_conditions":[5.2200913E-1,4.300228E-1,1.2054642E-1,3.3397782E-1,-8.3919846E-2,-4.163766E-1,-7.202034E-2,1.0698221E-1,6.115462E-3],"split_indices":[1,16,0,3,0,4,0,0,0],"split_type":[0,0,0,0,0,0,0,0,0],"sum_hessian":[1.4188105E1,1.1157503E1,3.0306015E0,7.9654164E0,3.1920862E0,5.1629868E0,2.8024297E0,2.1948647E0,2.9681222E0],"tree_param":{"num_deleted":"0","num_feature":"57","num_nodes":"9","size_leaf_vector":"1"}},{"base_weights":[4.1002657E-2,-4.4245985E-1,1.2687679E-1,7.3276706E-2,-1.0160542E-1,-4.2246476E-2,5.7124674E-2],"categories":[],"categories_nodes":[],"categories_segments":[],"categories_sizes":[],"default_left":[0,0,0,0,0,0,0],"id":97,"left_children":[1,3,-1,5,-1,-1,-1],"loss_changes":[1.1368232E1,5.069316E0,0E0,3.5091686E0,0E0,0E0,0E0],"parents":[2147483647,0,0,1,1,3,3],"right_children":[2,4,-1,6,-1,-1,-1],"split_conditions":[5.2200913E-1,3.208999E-1,1.2687679E-1,-4.6348926E-2,-1.0160542E-1,-4.2246476E-2,5.7124674E-2],"split_indices":[1,41,0,28,0,0,0],"split_type":[0,0,0,0,0,0,0],"sum_hessian":[1.3280489E1,1.0658684E1,2.6218054E0,7.1281366E0,3.5305474E0,3.767919E0,3.3602173E0],"tree_param":{"num_deleted":"0","num_feature":"57","num_nodes":"7","size_leaf_vector":"1"}},{"base_weights":[6.295394E-2,-3.9752376E-1,1.0109023E0,-3.93638E-2,-9.117136E-2,-5.7248486E-4,1.3117611E-1,4.9019318E-2,-5.429622E-2],"categories":[],"categories_nodes":[],"categories_segments":[],"categories_sizes":[],"default_left":[0,0,0,0,0,0,0,0,0],"id":98,"left_children":[1,3,5,7,-1,-1,-1,-1,-1],"loss_changes":[7.2483697E0,2.9518466E0,3.4751463E0,4.0180984E0,0E0,0E0,0E0,0E0,0E0],"parents":[2147483647,0,0,1,1,2,2,3,3],"right_children":[2,4,6,8,-1,-1,-1,-1,-1],"split_conditions":[1.1501287E0,2.591894E-1,-3.8466766E-1,-1.3559012E-1,-9.117136E-2,-5.7248486E-4,1.3117611E-1,4.9019318E-2,-5.429622E-2],"split_indices":[46,3,14,31,0,0,0,0,0],"split_type":[0,0,0,0,0,0,0,0,0],"sum_hessian":[1.4684696E1,1.0274419E1,4.4102783E0,7.640173E0,2.6342456E0,2.0613942E0,2.3488839E0,3.802919E0,3.8372538E0],"tree_param":{"num_deleted":"0","num_feature":"57","num_nodes":"9","size_leaf_vector":"1"}},{"base_weights":[1.7800014E-1,5.974405E-1,-8.529675E-2,-7.991834E-2,1.1985757E0,6.4071395E-2,-5.559683E-2,2.927246E-2,1.2885857E-1],"categories":[],"categories_nodes":[],"categories_segments":[],"categories_sizes":[],"default_left":[0,0,0,0,0,0,0,0,0],"id":99,"left_children":[1,3,-1,5,7,-1,-1,-1,-1],"loss_changes":[8.028552E0,4.669897E0,0E0,3.9258466E0,1.474617E0,0E0,0E0,0E0,0E0],"parents":[2147483647,0,0,1,1,3,3,4,4],"right_children":[2,4,-1,6,8,-1,-1,-1,-1],"split_conditions":[7.676052E-1,-4.073883E-1,-8.529675E-2,-5.28754E-1,-2.6794484E-1,6.4071395E-2,-5.559683E-2,2.927246E-2,1.2885857E-1],"split_indices":[25,20,0,13,22,0,0,0,0],"split_type":[0,0,0,0,0,0,0,0,0],"sum_hessian":[1.31635475E1,1.0233512E1,2.9300356E0,5.2193766E0,5.0141354E0,2.0217805E0,3.1975963E0,2.2851944E0,2.728941E0],"tree_param":{"num_deleted":"0","num_feature":"57","num_nodes":"9","size_leaf_vector":"1"}},{"base_weights":[1.9958971E-1,1.0276996E0,-2.9594678E-1,6.445349E-3,1.2170098E-1,-7.7109456E-1,2.403446E-1,-1.4204281E-2,-9.318592E-2,-3.5113502E-2,6.572012E-2],"categories":[],"categories_nodes":[],"categories_segments":[],"categories_sizes":[],"default_left":[0,0,0,0,0,0,0,0,0,0,0],"id":100,"left_children":[1,3,5,-1,-1,7,9,-1,-1,-1,-1],"loss_changes":[6.5742035E0,2.6559763E0,2.8190398E0,0E0,0E0,1.1294165E0,2.5782483E0,0E0,0E0,0E0,0E0],"parents":[2147483647,0,0,1,1,2,2,5,5,6,6],"right_children":[2,4,6,-1,-1,8,10,-1,-1,-1,-1],"split_conditions":[-2.3227355E-1,-3.3676744E-1,4.9957272E-1,6.445349E-3,1.2170098E-1,-2.233373E-2,-4.6348926E-2,-1.4204281E-2,-9.318592E-2,-3.5113502E-2,6.572012E-2],"split_indices":[34,31,19,0,0,28,28,0,0,0,0],"split_type":[0,0,0,0,0,0,0,0,0,0,0],"sum_hessian":[1.4279461E1,4.943791E0,9.33567E0,2.0921843E0,2.8516068E0,4.717868E0,4.617802E0,2.4601634E0,2.2577045E0,2.2420344E0,2.375768E0],"tree_param":{"num_deleted":"0","num_feature":"57","num_nodes":"11","size_leaf_vector":"1"}},{"base_weights":[1.1479196E-1,-2.8727108E-1,1.0136269E-1,2.6390028E-1,-9.2654145E-1,7.351715E-2,-3.1172058E-2,7.3384005E-3,-1.2341057E-1],"categories":[],"categories_nodes":[],"categories_segments":[],"categories_sizes":[],"default_left":[0,0,0,0,0,0,0,0,0],"id":101,"left_children":[1,3,-1,5,7,-1,-1,-1,-1],"loss_changes":[7.1153994E0,4.3383274E0,0E0,3.3624263E0,3.655342E0,0E0,0E0,0E0,0E0],"parents":[2147483647,0,0,1,1,3,3,4,4],"right_children":[2,4,-1,6,8,-1,-1,-1,-1],"split_conditions":[5.2200913E-1,1.5156557E-1,1.0136269E-1,-2.6128804E-2,-1.7143868E-1,7.351715E-2,-3.1172058E-2,7.3384005E-3,-1.2341057E-1],"split_indices":[1,41,0,16,40,0,0,0,0],"split_type":[0,0,0,0,0,0,0,0,0],"sum_hessian":[1.3573276E1,1.061868E1,2.9545956E0,6.0175796E0,4.6011004E0,2.8024905E0,3.2150888E0,2.0552702E0,2.5458305E0],"tree_param":{"num_deleted":"0","num_feature":"57","num_nodes":"9","size_leaf_vector":"1"}},{"base_weights":[5.5713713E-2,-2.640357E-1,7.15478E-2,3.2153568E-1,-6.8301857E-1,9.407304E-2,-4.5497492E-2,1.8673096E-3,-7.868553E-2],"categories":[],"categories_nodes":[],"categories_segments":[],"categories_sizes":[],"default_left":[0,0,0,0,0,0,0,0,0],"id":102,"left_children":[1,3,-1,5,7,-1,-1,-1,-1],"loss_changes":[4.2508645E0,3.0683517E0,0E0,4.869441E0,1.5278094E0,0E0,0E0,0E0,0E0],"parents":[2147483647,0,0,1,1,3,3,4,4],"right_children":[2,4,-1,6,8,-1,-1,-1,-1],"split_conditions":[9.75039E-1,-5.190173E-1,7.15478E-2,3.3397782E-1,-6.391097E-1,9.407304E-2,-4.5497492E-2,1.8673096E-3,-7.868553E-2],"split_indices":[22,2,0,3,45,0,0,0,0],"split_type":[0,0,0,0,0,0,0,0,0],"sum_hessian":[1.39717865E1,1.0611177E1,3.3606083E0,4.522751E0,6.088427E0,2.144143E0,2.378608E0,2.0926285E0,3.9957986E0],"tree_param":{"num_deleted":"0","num_feature":"57","num_nodes":"9","size_leaf_vector":"1"}},{"base_weights":[2.5694972E-2,-3.6381158E-1,7.739784E-2,-7.294524E-1,2.1309286E-2,-9.139724E-3,-9.295661E-2],"categories":[],"categories_nodes":[],"categories_segments":[],"categories_sizes":[],"default_left":[0,0,0,0,0,0,0],"id":103,"left_children":[1,3,-1,5,-1,-1,-1],"loss_changes":[5.5665526E0,2.6788845E0,0E0,1.754065E0,0E0,0E0,0E0],"parents":[2147483647,0,0,1,1,3,3],"right_children":[2,4,-1,6,-1,-1,-1],"split_conditions":[4.7674155E-1,4.9957272E-1,7.739784E-2,-1.07041515E-1,2.1309286E-2,-9.139724E-3,-9.295661E-2],"split_indices":[38,19,0,41,0,0,0],"split_type":[0,0,0,0,0,0,0],"sum_hessian":[1.3215285E1,9.782907E0,3.4323795E0,6.0911646E0,3.6917415E0,3.0363455E0,3.0548193E0],"tree_param":{"num_deleted":"0","num_feature":"57","num_nodes":"7","size_leaf_vector":"1"}},{"base_weights":[9.500763E-2,6.714878E-1,-4.1439915E-1,-8.7218854E-4,8.5963175E-2,7.761021E-2,-1.00176014E-1,-4.7396798E-2,4.8945878E-2],"categories":[],"categories_nodes":[],"categories_segments":[],"categories_sizes":[],"default_left":[0,0,0,0,0,0,0,0,0],"id":104,"left_children":[1,3,5,-1,-1,7,-1,-1,-1],"loss_changes":[4.5969443E0,2.01415E0,3.5703049E0,0E0,0E0,2.5997176E0,0E0,0E0,0E0],"parents":[2147483647,0,0,1,1,2,2,5,5],"right_children":[2,4,6,-1,-1,8,-1,-1,-1],"split_conditions":[5.5166252E-2,-2.9859892E-1,3.428573E-1,-8.7218854E-4,8.5963175E-2,-2.7991077E-1,-1.00176014E-1,-4.7396798E-2,4.8945878E-2],"split_indices":[40,31,31,0,0,19,0,0,0],"split_type":[0,0,0,0,0,0,0,0,0],"sum_hessian":[1.3706251E1,6.280558E0,7.4256935E0,2.6934097E0,3.5871484E0,5.249955E0,2.1757383E0,2.280484E0,2.969471E0],"tree_param":{"num_deleted":"0","num_feature":"57","num_nodes":"9","size_leaf_vector":"1"}},{"base_weights":[1.0070107E-1,-2.9420042E-1,8.789432E-1,1.9533116E-2,-7.471572E-2,1.1274217E-1,9.874829E-3,6.0394563E-2,-3.9599547E-1,4.6817176E-3,-6.1107814E-2],"categories":[],"categories_nodes":[],"categories_segments":[],"categories_sizes":[],"default_left":[0,0,0,0,0,0,0,0,0,0,0],"id":105,"left_children":[1,3,5,7,-1,-1,-1,-1,9,-1,-1],"loss_changes":[4.994547E0,2.2204275E0,2.0049329E0,2.8478682E0,0E0,0E0,0E0,0E0,1.0454789E0,0E0,0E0],"parents":[2147483647,0,0,1,1,2,2,3,3,8,8],"right_children":[2,4,6,8,-1,-1,-1,-1,10,-1,-1],"split_conditions":[1.1501287E0,2.591894E-1,7.941873E-2,-9.942921E-2,-7.471572E-2,1.1274217E-1,9.874829E-3,6.0394563E-2,1.0687184E-1,4.6817176E-3,-6.1107814E-2],"split_indices":[46,3,32,7,0,0,0,0,40,0,0],"split_type":[0,0,0,0,0,0,0,0,0,0,0],"sum_hessian":[1.4410072E1,9.971982E0,4.4380903E0,7.341268E0,2.6307137E0,2.0992026E0,2.3388877E0,2.3555813E0,4.985687E0,2.606283E0,2.3794038E0],"tree_param":{"num_deleted":"0","num_feature":"57","num_nodes":"11","size_leaf_vector":"1"}},{"base_weights":[2.0109246E-2,-6.484295E-1,3.643115E-1,-2.3016531E-3,-8.2559764E-2,-3.3843637E-2,6.6275954E-1,9.986201E-1,-1.3390601E-2,2.9150175E-2,1.12957865E-1],"categories":[],"categories_nodes":[],"categories_segments":[],"categories_sizes":[],"default_left":[0,0,0,0,0,0,0,0,0,0,0],"id":106,"left_children":[1,3,5,-1,-1,-1,7,9,-1,-1,-1],"loss_changes":[3.625E0,1.2454386E0,2.7152224E0,0E0,0E0,0E0,2.3706756E0,9.982934E-1,0E0,0E0,0E0],"parents":[2147483647,0,0,1,1,2,2,6,6,7,7],"right_children":[2,4,6,-1,-1,-1,8,10,-1,-1,-1],"split_conditions":[-2.7614978E-1,-7.849963E-2,-5.841839E-1,-2.3016531E-3,-8.2559764E-2,-3.3843637E-2,6.103339E-1,-3.959835E-1,-1.3390601E-2,2.9150175E-2,1.12957865E-1],"split_indices":[1,40,41,0,0,0,6,13,0,0,0],"split_type":[0,0,0,0,0,0,0,0,0,0,0],"sum_hessian":[1.3726575E1,4.3648777E0,9.361697E0,2.0798533E0,2.2850244E0,2.4584367E0,6.9032607E0,4.770323E0,2.132938E0,2.6246364E0,2.1456864E0],"tree_param":{"num_deleted":"0","num_feature":"57","num_nodes":"11","size_leaf_vector":"1"}},{"base_weights":[3.3026684E-2,-2.8130293E-1,6.4214975E-2,2.5477728E-1,-6.6931176E-1,8.5199885E-2,-4.742861E-2,-8.329154E-2,-1.7354392E-2],"categories":[],"categories_nodes":[],"categories_segments":[],"categories_sizes":[],"default_left":[0,0,0,0,0,0,0,0,0],"id":107,"left_children":[1,3,-1,5,7,-1,-1,-1,-1],"loss_changes":[3.7805045E0,2.494575E0,0E0,4.3507338E0,9.108124E-1,0E0,0E0,0E0,0E0],"parents":[2147483647,0,0,1,1,3,3,4,4],"right_children":[2,4,-1,6,8,-1,-1,-1,-1],"split_conditions":[9.75039E-1,-5.190173E-1,6.4214975E-2,3.3397782E-1,-3.22337E-1,8.5199885E-2,-4.742861E-2,-8.329154E-2,-1.7354392E-2],"split_indices":[22,2,0,3,35,0,0,0,0],"split_type":[0,0,0,0,0,0,0,0,0],"sum_hessian":[1.3693297E1,1.0173107E1,3.52019E0,4.415686E0,5.757421E0,2.126557E0,2.289129E0,2.4457116E0,3.3117094E0],"tree_param":{"num_deleted":"0","num_feature":"57","num_nodes":"9","size_leaf_vector":"1"}},{"base_weights":[1.2505665E-2,-2.8758135E-1,7.1860634E-2,3.0831534E-2,-5.505151E-1,-8.3126515E-1,2.11471E-2,-3.267562E-2,-9.455428E-2],"categories":[],"categories_nodes":[],"categories_segments":[],"categories_sizes":[],"default_left":[0,0,0,0,0,0,0,0,0],"id":108,"left_children":[1,3,-1,-1,5,7,-1,-1,-1],"loss_changes":[4.297081E0,2.3544636E0,0E0,0E0,2.3055277E0,5.584302E-1,0E0,0E0,0E0],"parents":[2147483647,0,0,1,1,4,4,5,5],"right_children":[2,4,-1,-1,6,8,-1,-1,-1],"split_conditions":[5.2200913E-1,-8.206421E-1,7.1860634E-2,3.0831534E-2,9.233283E-1,-8.707426E-2,2.11471E-2,-3.267562E-2,-9.455428E-2],"split_indices":[1,0,0,0,19,11,0,0,0],"split_type":[0,0,0,0,0,0,0,0,0],"sum_hessian":[1.4194569E1,1.1106937E1,3.0876317E0,2.9895294E0,8.117408E0,6.022331E0,2.095076E0,3.7116766E0,2.3106549E0],"tree_param":{"num_deleted":"0","num_feature":"57","num_nodes":"9","size_leaf_vector":"1"}},{"base_weights":[8.709389E-2,4.883988E-1,-4.810285E-1,-3.0916346E-2,9.437374E-1,-7.640251E-2,2.5848161E-2,1.0181377E-1,2.3008944E-2],"categories":[],"categories_nodes":[],"categories_segments":[],"categories_sizes":[],"default_left":[0,0,0,0,0,0,0,0,0],"id":109,"left_children":[1,3,5,-1,7,-1,-1,-1,-1],"loss_changes":[3.5394697E0,3.9460626E0,2.7875729E0,0E0,9.727969E-1,0E0,0E0,0E0,0E0],"parents":[2147483647,0,0,1,1,2,2,4,4],"right_children":[2,4,6,-1,8,-1,-1,-1,-1],"split_conditions":[5.04223E-1,-5.841839E-1,3.8898505E-2,-3.0916346E-2,2.4342017E-1,-7.640251E-2,2.5848161E-2,1.0181377E-1,2.3008944E-2],"split_indices":[45,41,28,0,32,0,0,0,0],"split_type":[0,0,0,0,0,0,0,0,0],"sum_hessian":[1.3494194E1,7.9903646E0,5.50383E0,2.7869706E0,5.203394E0,3.3446405E0,2.1591892E0,2.8399608E0,2.363433E0],"tree_param":{"num_deleted":"0","num_feature":"57","num_nodes":"9","size_leaf_vector":"1"}},{"base_weights":[1.007389E-1,7.887775E-1,-2.865106E-1,4.3972427E-4,9.998522E-2,-7.5687045E-1,2.2496645E-1,-8.288536E-2,-1.4992139E-2,-2.0319812E-2,5.44862E-2],"categories":[],"categories_nodes":[],"categories_segments":[],"categories_sizes":[],"default_left":[0,0,0,0,0,0,0,0,0,0,0],"id":110,"left_children":[1,3,5,-1,-1,7,9,-1,-1,-1,-1],"loss_changes":[4.087743E0,1.974304E0,2.577876E0,0E0,0E0,6.711569E-1,1.3887513E0,0E0,0E0,0E0,0E0],"parents":[2147483647,0,0,1,1,2,2,5,5,6,6],"right_children":[2,4,6,-1,-1,8,10,-1,-1,-1,-1],"split_conditions":[-2.3227355E-1,1.2887494E-1,4.9957272E-1,4.3972427E-4,9.998522E-2,-4.76167E-1,-2.1720338E-1,-8.288536E-2,-1.4992139E-2,-2.0319812E-2,5.44862E-2],"split_indices":[34,26,19,0,0,38,34,0,0,0,0],"split_type":[0,0,0,0,0,0,0,0,0,0,0],"sum_hessian":[1.3493738E1,4.4861608E0,9.007578E0,2.037118E0,2.449043E0,4.442465E0,4.5651126E0,2.4311664E0,2.0112984E0,2.442918E0,2.1221948E0],"tree_param":{"num_deleted":"0","num_feature":"57","num_nodes":"11","size_leaf_vector":"1"}},{"base_weights":[1.137504E-1,3.7318325E-1,-6.410075E-2,7.1839875E-1,-2.1219656E-2,9.087186E-2,1.3044913E-3],"categories":[],"categories_nodes":[],"categories_segments":[],"categories_sizes":[],"default_left":[0,0,0,0,0,0,0],"id":111,"left_children":[1,3,-1,5,-1,-1,-1],"loss_changes":[3.6243777E0,2.7463028E0,0E0,2.2666984E0,0E0,0E0,0E0],"parents":[2147483647,0,0,1,1,3,3],"right_children":[2,4,-1,6,-1,-1,-1],"split_conditions":[3.3397782E-1,4.7969478E-1,-6.410075E-2,2.7223516E-1,-2.1219656E-2,9.087186E-2,1.3044913E-3],"split_indices":[3,16,0,8,0,0,0],"split_type":[0,0,0,0,0,0,0],"sum_hessian":[1.3008386E1,1.0596198E1,2.4121876E0,6.796104E0,3.8000946E0,3.8743472E0,2.9217565E0],"tree_param":{"num_deleted":"0","num_feature":"57","num_nodes":"7","size_leaf_vector":"1"}},{"base_weights":[1.3015473E-1,-1.7973351E-1,5.9901476E-2,4.0331772E-1,-6.532602E-1,7.253139E-2,-1.7789626E-2,-8.571489E-2,-2.5993802E-3],"categories":[],"categories_nodes":[],"categories_segments":[],"categories_sizes":[],"default_left":[0,0,0,0,0,0,0,0,0],"id":112,"left_children":[1,3,-1,5,7,-1,-1,-1,-1],"loss_changes":[2.7621098E0,3.0073395E0,0E0,1.7990094E0,1.4879358E0,0E0,0E0,0E0,0E0],"parents":[2147483647,0,0,1,1,3,3,4,4],"right_children":[2,4,-1,6,8,-1,-1,-1,-1],"split_conditions":[9.75039E-1,-5.0115186E-1,5.9901476E-2,-4.7305948E-1,-2.250814E-1,7.253139E-2,-1.7789626E-2,-8.571489E-2,-2.5993802E-3],"split_indices":[22,6,0,10,34,0,0,0,0],"split_type":[0,0,0,0,0,0,0,0,0],"sum_hessian":[1.2706393E1,8.9383E0,3.7680929E0,4.0723286E0,4.8659716E0,2.007996E0,2.0643322E0,2.4736376E0,2.392334E0],"tree_param":{"num_deleted":"0","num_feature":"57","num_nodes":"9","size_leaf_vector":"1"}},{"base_weights":[2.9435612E-2,-3.5344502E-1,4.61021E-1,4.186558E-2,-8.431072E-1,-1.4797027E-2,6.360693E-2,-8.230357E-2,-2.9118985E-2],"categories":[],"categories_nodes":[],"categories_segments":[],"categories_sizes":[],"default_left":[0,0,0,0,0,0,0,0,0],"id":113,"left_children":[1,3,5,-1,7,-1,-1,-1,-1],"loss_changes":[2.3891377E0,3.7490537E0,1.6074207E0,0E0,9.943771E-2,0E0,0E0,0E0,0E0],"parents":[2147483647,0,0,1,1,2,2,4,4],"right_children":[2,4,6,-1,8,-1,-1,-1,-1],"split_conditions":[2.8914878E-2,-4.5648316E-1,3.029554E-2,4.186558E-2,-2.2492282E-1,-1.4797027E-2,6.360693E-2,-8.230357E-2,-2.9118985E-2],"split_indices":[22,6,26,0,34,0,0,0,0],"split_type":[0,0,0,0,0,0,0,0,0],"sum_hessian":[1.2472013E1,6.7048583E0,5.7671556E0,2.3780692E0,4.326789E0,2.117966E0,3.6491895E0,2.291455E0,2.0353339E0],"tree_param":{"num_deleted":"0","num_feature":"57","num_nodes":"9","size_leaf_vector":"1"}},{"base_weights":[1.8443406E-1,-6.6707656E-2,6.940221E-2,3.564908E-1,-6.8386815E-2,-1.29323965E-2,5.9035268E-2],"categories":[],"categories_nodes":[],"categories_segments":[],"categories_sizes":[],"default_left":[0,0,0,0,0,0,0],"id":114,"left_children":[1,3,-1,5,-1,-1,-1],"loss_changes":[2.3674588E0,3.89768E0,0E0,1.6440413E0,0E0,0E0,0E0],"parents":[2147483647,0,0,1,1,3,3],"right_children":[2,4,-1,6,-1,-1,-1],"split_conditions":[5.2200913E-1,4.300228E-1,6.940221E-2,-7.0488006E-1,-6.8386815E-2,-1.29323965E-2,5.9035268E-2],"split_indices":[1,16,0,22,0,0,0],"split_type":[0,0,0,0,0,0,0],"sum_hessian":[1.2462804E1,9.772321E0,2.690483E0,6.7145195E0,3.0578012E0,3.0914428E0,3.623077E0],"tree_param":{"num_deleted":"0","num_feature":"57","num_nodes":"7","size_leaf_vector":"1"}},{"base_weights":[8.607766E-2,5.036203E-1,-2.693878E-1,6.524117E-2,-1.0680939E-2,-7.631623E-2,1.2513134E-1,-3.5446472E-2,5.9493523E-2],"categories":[],"categories_nodes":[],"categories_segments":[],"categories_sizes":[],"default_left":[0,0,0,0,0,0,0,0,0],"id":115,"left_children":[1,3,5,-1,-1,-1,7,-1,-1],"loss_changes":[2.1934445E0,1.4450552E0,2.3178751E0,0E0,0E0,0E0,2.4552283E0,0E0,0E0],"parents":[2147483647,0,0,1,1,2,2,6,6],"right_children":[2,4,6,-1,-1,-1,8,-1,-1],"split_conditions":[5.5166252E-2,6.090225E-1,-1.2687927E-1,6.524117E-2,-1.0680939E-2,-7.631623E-2,4.9957272E-1,-3.5446472E-2,5.9493523E-2],"split_indices":[40,6,28,0,0,0,19,0,0],"split_type":[0,0,0,0,0,0,0,0,0],"sum_hessian":[1.2864356E1,5.723975E0,7.1403804E0,3.654846E0,2.0691292E0,2.0921285E0,5.048252E0,2.7790108E0,2.269241E0],"tree_param":{"num_deleted":"0","num_feature":"57","num_nodes":"9","size_leaf_vector":"1"}},{"base_weights":[-3.0652853E-2,-2.7627724E-1,6.387671E-2,2.8123328E-2,-5.19317E-1,-8.5078686E-1,2.9397788E-2,-8.045736E-2,-2.675475E-2],"categories":[],"categories_nodes":[],"categories_segments":[],"categories_sizes":[],"default_left":[0,0,0,0,0,0,0,0,0],"id":116,"left_children":[1,3,-1,-1,5,7,-1,-1,-1],"loss_changes":[3.1152506E0,1.9690727E0,0E0,0E0,2.9124043E0,2.0281363E-1,0E0,0E0,0E0],"parents":[2147483647,0,0,1,1,4,4,5,5],"right_children":[2,4,-1,-1,6,8,-1,-1,-1],"split_conditions":[5.2200913E-1,-8.206421E-1,6.387671E-2,2.8123328E-2,9.233283E-1,5.315821E-1,2.9397788E-2,-8.045736E-2,-2.675475E-2],"split_indices":[1,0,0,0,19,8,0,0,0],"split_type":[0,0,0,0,0,0,0,0,0],"sum_hessian":[1.3213864E1,1.0708307E1,2.5055573E0,2.8638885E0,7.8444185E0,5.739623E0,2.1047952E0,3.6859353E0,2.0536878E0],"tree_param":{"num_deleted":"0","num_feature":"57","num_nodes":"9","size_leaf_vector":"1"}},{"base_weights":[-1.11560434E-1,-6.2036556E-1,2.359999E-1,8.832978E-3,-8.8333026E-2,5.905625E-1,-3.0102752E-2,7.194466E-2,4.841002E-3],"categories":[],"categories_nodes":[],"categories_segments":[],"categories_sizes":[],"default_left":[0,0,0,0,0,0,0,0,0],"id":117,"left_children":[1,3,5,-1,-1,7,-1,-1,-1],"loss_changes":[2.5492775E0,2.1690488E0,2.132104E0,0E0,0E0,9.2101765E-1,0E0,0E0,0E0],"parents":[2147483647,0,0,1,1,2,2,5,5],"right_children":[2,4,6,-1,-1,8,-1,-1,-1],"split_conditions":[-4.0718053E-2,-7.849963E-2,8.81475E-1,8.832978E-3,-8.8333026E-2,-2.3227355E-1,-3.0102752E-2,7.194466E-2,4.841002E-3],"split_indices":[1,40,4,0,0,34,0,0,0],"split_type":[0,0,0,0,0,0,0,0,0],"sum_hessian":[1.2587791E1,4.7902584E0,7.797533E0,2.2155063E0,2.574752E0,4.960484E0,2.837049E0,2.6943944E0,2.26609E0],"tree_param":{"num_deleted":"0","num_feature":"57","num_nodes":"9","size_leaf_vector":"1"}},{"base_weights":[-1.1921531E-1,-4.3238428E-1,5.005938E-2,7.119213E-3,-7.857624E-1,-1.5500888E-2,-9.1853075E-2],"categories":[],"categories_nodes":[],"categories_segments":[],"categories_sizes":[],"default_left":[0,0,0,0,0,0,0],"id":118,"left_children":[1,3,-1,-1,5,-1,-1],"loss_changes":[3.3163118E0,1.872311E0,0E0,0E0,1.050292E0,0E0,0E0],"parents":[2147483647,0,0,1,1,4,4],"right_children":[2,4,-1,-1,6,-1,-1],"split_conditions":[9.75039E-1,-5.190173E-1,5.005938E-2,7.119213E-3,-7.852698E-2,-1.5500888E-2,-9.1853075E-2],"split_indices":[22,2,0,0,41,0,0],"split_type":[0,0,0,0,0,0,0],"sum_hessian":[1.2055216E1,8.78269E0,3.2725253E0,3.8502305E0,4.93246E0,2.4556632E0,2.4767969E0],"tree_param":{"num_deleted":"0","num_feature":"57","num_nodes":"7","size_leaf_vector":"1"}},{"base_weights":[1.6802675E-1,-5.6719612E-2,6.798312E-2,4.0050004E-2,-3.1950817E-1,1.796989E-1,-7.31872E-2,-8.755831E-3,3.307035E-2],"categories":[],"categories_nodes":[],"categories_segments":[],"categories_sizes":[],"default_left":[0,0,0,0,0,0,0,0,0],"id":119,"left_children":[1,3,-1,-1,5,7,-1,-1,-1],"loss_changes":[2.0031636E0,1.702668E0,0E0,0E0,2.4731364E0,3.87217E-1,0E0,0E0,0E0],"parents":[2147483647,0,0,1,1,4,4,5,5],"right_children":[2,4,-1,-1,6,8,-1,-1,-1],"split_conditions":[1.1811637E0,-8.206421E-1,6.798312E-2,4.0050004E-2,1.18442774E-1,-5.2820814E-1,-7.31872E-2,-8.755831E-3,3.307035E-2],"split_indices":[19,0,0,0,31,31,0,0,0],"split_type":[0,0,0,0,0,0,0,0,0],"sum_hessian":[1.1758897E1,9.533075E0,2.2258217E0,2.7646074E0,6.768468E0,4.061178E0,2.7072897E0,2.0527823E0,2.0083957E0],"tree_param":{"num_deleted":"0","num_feature":"57","num_nodes":"9","size_leaf_vector":"1"}},{"base_weights":[-7.5805485E-1,-1.3470037E0,4.6804022E-2,4.795003E-3,-1.7574459E0,-2.2181525E0,-5.1126283E-2,-7.055201E-2,-2.2717081E-1],"categories":[],"categories_nodes":[],"categories_segments":[],"categories_sizes":[],"default_left":[0,0,0,0,0,0,0,0,0],"id":120,"left_children":[1,3,-1,-1,5,7,-1,-1,-1],"loss_changes":[1.1791967E1,5.8646183E0,0E0,0E0,2.577547E0,1.7202091E0,0E0,0E0,0E0],"parents":[2147483647,0,0,1,1,4,4,5,5],"right_children":[2,4,-1,-1,6,8,-1,-1,-1],"split_conditions":[1.0813405E-2,-5.11467E-1,4.6804022E-2,4.795003E-3,9.915895E-2,1.0633665E-1,-5.1126283E-2,-7.055201E-2,-2.2717081E-1],"split_indices":[10,25,0,0,40,32,0,0,0],"split_type":[0,0,0,0,0,0,0,0,0],"sum_hessian":[1.2911025E1,8.973333E0,3.9376912E0,2.2194216E0,6.753912E0,4.086933E0,2.6669786E0,2.0653157E0,2.0216177E0],"tree_param":{"num_deleted":"0","num_feature":"57","num_nodes":"9","size_leaf_vector":"1"}},{"base_weights":[-7.9808646E-1,-1.4391193E0,5.103558E-1,8.806227E-3,-1.6304271E-1,8.253843E-2,-1.500324E-2],"categories":[],"categories_nodes":[],"categories_segments":[],"categories_sizes":[],"default_left":[0,0,0,0,0,0,0],"id":121,"left_children":[1,3,5,-1,-1,-1,-1],"loss_changes":[1.2359853E1,9.098639E0,2.120449E0,0E0,0E0,0E0,0E0],"parents":[2147483647,0,0,1,1,2,2],"right_children":[2,4,6,-1,-1,-1,-1],"split_conditions":[-1.4140926E-1,-4.4850343E-1,3.4536675E-1,8.806227E-3,-1.6304271E-1,8.253843E-2,-1.500324E-2],"split_indices":[10,25,0,0,0,0,0],"split_type":[0,0,0,0,0,0,0],"sum_hessian":[1.2860301E1,8.564502E0,4.295799E0,2.6154327E0,5.949069E0,2.1850665E0,2.1107323E0],"tree_param":{"num_deleted":"0","num_feature":"57","num_nodes":"7","size_leaf_vector":"1"}},{"base_weights":[-7.52468E-1,-1.2870135E0,1.7436253E-1,-1.6506007E0,-5.1098876E-3,6.453655E-2,-3.46296E-2,-1.6724062E-1,-3.9371468E-2],"categories":[],"categories_nodes":[],"categories_segments":[],"categories_sizes":[],"default_left":[0,0,0,0,0,0,0,0,0],"id":122,"left_children":[1,3,5,7,-1,-1,-1,-1,-1],"loss_changes":[7.113129E0,3.8693495E0,2.6402874E0,2.4617558E0,0E0,0E0,0E0,0E0,0E0],"parents":[2147483647,0,0,1,1,2,2,3,3],"right_children":[2,4,6,8,-1,-1,-1,-1,-1],"split_conditions":[-2.3109628E-1,1.1817905E0,3.2315215E-1,9.915895E-2,-5.1098876E-3,6.453655E-2,-3.46296E-2,-1.6724062E-1,-3.9371468E-2],"split_indices":[34,45,7,40,0,0,0,0,0],"split_type":[0,0,0,0,0,0,0,0,0],"sum_hessian":[1.2904441E1,7.9377556E0,4.9666853E0,5.8494782E0,2.0882773E0,2.2721128E0,2.6945724E0,3.6564384E0,2.19304E0],"tree_param":{"num_deleted":"0","num_feature":"57","num_nodes":"9","size_leaf_vector":"1"}},{"base_weights":[-6.243165E-1,-1.2839919E0,5.652443E-1,-1.6284196E-1,-4.405071E-1,1.01912245E-1,-1.48459645E-2,4.377556E-2,-8.983639E-2],"categories":[],"categories_nodes":[],"categories_segments":[],"categories_sizes":[],"default_left":[0,0,0,0,0,0,0,0,0],"id":123,"left_children":[1,3,5,-1,7,-1,-1,-1,-1],"loss_changes":[1.19829E1,5.1467533E0,3.3286757E0,0E0,4.502542E0,0E0,0E0,0E0,0E0],"parents":[2147483647,0,0,1,1,2,2,4,4],"right_children":[2,4,6,-1,8,-1,-1,-1,-1],"split_conditions":[-2.3109628E-1,-1.0902995E-1,-2.43974E-1,-1.6284196E-1,-4.0736288E-2,1.01912245E-1,-1.48459645E-2,4.377556E-2,-8.983639E-2],"split_indices":[34,40,42,0,25,0,0,0,0],"split_type":[0,0,0,0,0,0,0,0,0],"sum_hessian":[1.3345337E1,8.533608E0,4.811728E0,3.7654314E0,4.7681775E0,2.1169572E0,2.6947706E0,2.0293305E0,2.7388468E0],"tree_param":{"num_deleted":"0","num_feature":"57","num_nodes":"9","size_leaf_vector":"1"}},{"base_weights":[-7.6157486E-1,-1.3336103E0,4.029892E-1,-2.306925E-2,-1.5782759E0,-2.3955263E-2,7.632274E-2,-6.2099345E-2,-1.5314154E-1],"categories":[],"categories_nodes":[],"categories_segments":[],"categories_sizes":[],"default_left":[0,0,0,0,0,0,0,0,0],"id":124,"left_children":[1,3,5,-1,7,-1,-1,-1,-1],"loss_changes":[9.976528E0,2.0341816E0,2.3895068E0,0E0,5.7935905E-1,0E0,0E0,0E0,0E0],"parents":[2147483647,0,0,1,1,2,2,4,4],"right_children":[2,4,6,-1,8,-1,-1,-1,-1],"split_conditions":[-1.4140926E-1,-5.874114E-1,-4.1010043E-1,-2.306925E-2,3.6229122E-2,-2.3955263E-2,7.632274E-2,-6.2099345E-2,-1.5314154E-1],"split_indices":[10,25,26,0,32,0,0,0,0],"split_type":[0,0,0,0,0,0,0,0,0],"sum_hessian":[1.316916E1,8.733898E0,4.4352612E0,2.069846E0,6.6640525E0,2.150528E0,2.284733E0,2.9448433E0,3.719209E0],"tree_param":{"num_deleted":"0","num_feature":"57","num_nodes":"9","size_leaf_vector":"1"}},{"base_weights":[-3.6918288E-1,-8.911458E-1,7.37178E-1,1.5522831E-2,-1.2670422E0,3.5285857E-3,9.591867E-2,-1.5149064E0,-3.7626226E-2,-1.5450303E-1,-5.0635234E-2],"categories":[],"categories_nodes":[],"categories_segments":[],"categories_sizes":[],"default_left":[0,0,0,0,0,0,0,0,0,0,0],"id":125,"left_children":[1,3,5,-1,7,-1,-1,9,-1,-1,-1],"loss_changes":[9.020079E0,4.444359E0,1.608108E0,0E0,8.233509E-1,0E0,0E0,7.906637E-1,0E0,0E0,0E0],"parents":[2147483647,0,0,1,1,2,2,4,4,7,7],"right_children":[2,4,6,-1,8,-1,-1,10,-1,-1,-1],"split_conditions":[-1.4140926E-1,-5.11467E-1,-3.8230813E-1,1.5522831E-2,6.48197E-1,3.5285857E-3,9.591867E-2,-2.4197863E-2,-3.7626226E-2,-1.5450303E-1,-5.0635234E-2],"split_indices":[10,25,25,0,33,0,0,40,0,0,0],"split_type":[0,0,0,0,0,0,0,0,0,0,0],"sum_hessian":[1.3482154E1,9.292588E0,4.1895657E0,2.5152059E0,6.7773824E0,2.1133668E0,2.076199E0,4.48166E0,2.2957225E0,2.2361884E0,2.2454715E0],"tree_param":{"num_deleted":"0","num_feature":"57","num_nodes":"11","size_leaf_vector":"1"}},{"base_weights":[-5.023555E-1,-1.0147526E0,5.353834E-1,-8.7449225E-3,-1.3062168E0,-2.1697858E-2,8.4421635E-2,-1.22818604E-1,-4.1338E-2],"categories":[],"categories_nodes":[],"categories_segments":[],"categories_sizes":[],"default_left":[0,0,0,0,0,0,0,0,0],"id":126,"left_children":[1,3,5,-1,7,-1,-1,-1,-1],"loss_changes":[8.695627E0,2.6570015E0,2.685904E0,0E0,6.412802E-1,0E0,0E0,0E0,0E0],"parents":[2147483647,0,0,1,1,2,2,4,4],"right_children":[2,4,6,-1,8,-1,-1,-1,-1],"split_conditions":[-1.4140926E-1,-3.2843304E-1,-4.5059416E-1,-8.7449225E-3,6.5240175E-1,-2.1697858E-2,8.4421635E-2,-1.22818604E-1,-4.1338E-2],"split_indices":[10,35,26,0,14,0,0,0,0],"split_type":[0,0,0,0,0,0,0,0,0],"sum_hessian":[1.4331611E1,9.609128E0,4.722482E0,2.6748085E0,6.93432E0,2.0383217E0,2.6841602E0,4.642919E0,2.2914007E0],"tree_param":{"num_deleted":"0","num_feature":"57","num_nodes":"9","size_leaf_vector":"1"}},{"base_weights":[-3.9845276E-1,-6.9097817E-1,6.041832E-2,-1.1702166E0,1.817727E-2,-1.2686338E-1,-4.45458E-3],"categories":[],"categories_nodes":[],"categories_segments":[],"categories_sizes":[],"default_left":[0,0,0,0,0,0,0],"id":127,"left_children":[1,3,-1,5,-1,-1,-1],"loss_changes":[5.3599863E0,5.528028E0,0E0,3.6263552E0,0E0,0E0,0E0],"parents":[2147483647,0,0,1,1,3,3],"right_children":[2,4,-1,6,-1,-1,-1],"split_conditions":[6.3556397E-1,1.6759396E-1,6.041832E-2,-2.1771628E-1,1.817727E-2,-1.2686338E-1,-4.45458E-3],"split_indices":[9,40,0,10,0,0,0],"split_type":[0,0,0,0,0,0,0],"sum_hessian":[1.3336026E1,1.0958481E1,2.3775454E0,7.02001E0,3.938471E0,4.805395E0,2.2146146E0],"tree_param":{"num_deleted":"0","num_feature":"57","num_nodes":"7","size_leaf_vector":"1"}},{"base_weights":[-3.6378348E-1,1.4608656E-1,-1.008182E0,8.9967126E-1,-7.577639E-2,-1.15627505E-1,-1.436705E-3,6.9868057E-3,1.0324186E-1],"categories":[],"categories_nodes":[],"categories_segments":[],"categories_sizes":[],"default_left":[0,0,0,0,0,0,0,0,0],"id":128,"left_children":[1,3,5,7,-1,-1,-1,-1,-1],"loss_changes":[5.1192627E0,8.532138E0,2.922464E0,1.8021436E0,0E0,0E0,0E0,0E0,0E0],"parents":[2147483647,0,0,1,1,2,2,3,3],"right_children":[2,4,6,8,-1,-1,-1,-1,-1],"split_conditions":[4.1992706E-1,3.5796103E-1,4.0831247E-1,-2.1945861E-1,-7.577639E-2,-1.15627505E-1,-1.436705E-3,6.9868057E-3,1.0324186E-1],"split_indices":[19,33,6,23,0,0,0,0,0],"split_type":[0,0,0,0,0,0,0,0,0],"sum_hessian":[1.4132666E1,8.321617E0,5.811048E0,5.030967E0,3.2906501E0,3.712463E0,2.0985851E0,2.0317276E0,2.9992397E0],"tree_param":{"num_deleted":"0","num_feature":"57","num_nodes":"9","size_leaf_vector":"1"}},{"base_weights":[-2.3325825E-1,1.0808761E-1,-9.240728E-2,7.119356E-1,-5.141497E-1,9.828123E-2,-9.246994E-3,-7.173545E-2,4.4784485E-3],"categories":[],"categories_nodes":[],"categories_segments":[],"categories_sizes":[],"default_left":[0,0,0,0,0,0,0,0,0],"id":129,"left_children":[1,3,-1,5,7,-1,-1,-1,-1],"loss_changes":[4.4083915E0,4.4423623E0,0E0,2.6748888E0,1.3421618E0,0E0,0E0,0E0,0E0],"parents":[2147483647,0,0,1,1,3,3,4,4],"right_children":[2,4,-1,6,8,-1,-1,-1,-1],"split_conditions":[1.1097994E0,5.388116E-2,-9.240728E-2,1.3627702E0,-2.9436E-1,9.828123E-2,-9.246994E-3,-7.173545E-2,4.4784485E-3],"split_indices":[19,22,0,54,10,0,0,0,0],"split_type":[0,0,0,0,0,0,0,0,0],"sum_hessian":[1.26130705E1,9.848874E0,2.7641966E0,4.9251375E0,4.923736E0,2.733922E0,2.1912155E0,2.6038387E0,2.3198977E0],"tree_param":{"num_deleted":"0","num_feature":"57","num_nodes":"9","size_leaf_vector":"1"}},{"base_weights":[-4.1818103E-1,-6.608602E-1,5.341269E-2,-1.0112258E0,5.8012813E-2,-1.3668857E0,-2.2770118E-2,3.3195008E-2,-2.6277723E-2,-1.3950068E-1,-4.461811E-2],"categories":[],"categories_nodes":[],"categories_segments":[],"categories_sizes":[],"default_left":[0,0,0,0,0,0,0,0,0,0,0],"id":130,"left_children":[1,3,-1,5,7,9,-1,-1,-1,-1,-1],"loss_changes":[4.3691125E0,3.253786E0,0E0,1.8290167E0,8.401717E-1,7.045269E-1,0E0,0E0,0E0,0E0,0E0],"parents":[2147483647,0,0,1,1,3,3,4,4,5,5],"right_children":[2,4,-1,6,8,10,-1,-1,-1,-1,-1],"split_conditions":[9.072723E-1,1.6759396E-1,5.341269E-2,-8.885094E-3,-6.6083044E-1,-2.0875564E-1,-2.2770118E-2,3.3195008E-2,-2.6277723E-2,-1.3950068E-1,-4.461811E-2],"split_indices":[9,40,0,20,25,40,0,0,0,0,0],"split_type":[0,0,0,0,0,0,0,0,0,0,0],"sum_hessian":[1.3905976E1,1.1685676E1,2.2203007E0,7.583119E0,4.1025567E0,4.49948E0,3.0836391E0,